0.001251
0.174108
0.988525
0.166234
0.875973
0.779656
0.375866
0.837611
0.599048
0.517106
0.147496
0.153233
0.758154
0.889984
0.469579
0.195900
0.531327
0.314066
0.252724
0.113773
0.436689
0.189947
0.931516
0.451613
0.184271
0.494461
0.911557
0.108554
0.545091
0.826685
0.609638
0.919980
0.689086
0.750235
0.181307
0.955809
0.112838
0.562722
0.427064
1.109561
1.019910
0.711157
0.928715
0.112093
0.411498
0.759517
0.533305
0.226616
0.172205
0.675421
0.038382
0.689236
0.943022
0.070284
0.441298
0.185308
0.895322
0.353557
0.368933
0.084576
0.733170
0.437670
0.010026
0.517079
0.170595
-1.218114
-1.412982
-0.204228
0.210680
-0.277292
-2.247701
-3.365051
-6.864428
-7.647061
-7.419629
-7.179573
-5.292564
-2.853083
-1.113368
0.277308
-0.125152
0.554327
0.621204
0.492630
0.629475
0.251961
0.457737
0.616370
-0.063325
0.439690
0.188441
-0.988445
-1.320715
-4.007570
-3.484693
-0.789347
-0.887995
-0.686060
-5.451190
-8.722260
-11.889644
-15.111931
-18.133279
-17.673174
-14.223765
-9.604313
-5.665056
-1.629520
-0.578295
0.409054
0.952091
0.748314
0.500443
0.350739
0.452565
0.547222
0.341760
-0.366300
-1.573858
-3.342602
-5.509219
-8.428526
-8.942491
-6.207214
-0.331618
3.358286
0.321459
2.262633
-1.660055
-2.547569
-3.456372
-3.384311
-5.847547
-6.497520
-7.556531
-6.237330
-3.281839
-0.751845
0.594988
0.240165
0.604572
0.201666
0.596371
0.795195
-0.499158
-1.694074
-1.872672
-4.297784
-7.607715
-9.450177
-9.272056
-5.341750
-0.121464
5.579063
4.626252
4.646179
4.694078
4.015744
1.758009
1.748345
-1.749082
-3.741851
-9.376712
-11.314376
-8.908813
-3.208297
0.013613
0.116412
0.174444
0.081425
0.223600
0.356440
0.357709
-0.432659
-0.232986
-1.471682
-2.835535
-4.493297
-5.126118
-3.107908
1.734457
7.239006
6.082388
4.916120
4.879741
6.332797
7.107837
2.884701
1.293492
0.864941
-4.872112
-14.947993
-17.018908
-7.843800
-1.579368
0.308537
1.001159
0.597139
0.359257
0.488357
-0.406255
0.574401
1.606591
1.100618
-0.416199
1.514760
-1.375300
0.316535
5.013482
8.375799
10.224865
9.347705
7.253511
11.050385
9.335057
3.133431
-1.424514
-1.360767
-3.662582
-15.421139
-22.880521
-13.113623
-3.048959
0.544895
0.526475
0.148720
0.227532
-1.148254
-2.184596
-1.889851
0.916452
0.675240
1.004126
1.533138
0.281120
-2.281009
0.471860
4.649041
8.354276
11.300412
14.022050
10.804242
6.028694
4.349964
3.727546
-0.958643
-2.651790
-11.446820
-23.424981
-15.957740
-3.141969
0.670795
0.213853
0.366416
-0.879700
-2.627192
-4.048671
-4.737022
-2.079298
-0.824779
0.090043
0.633878
0.031360
-3.784268
0.238530
7.259182
10.087628
12.654187
11.207769
9.055527
8.320746
10.709149
12.172240
7.324547
3.947252
-1.216662
-16.484734
-14.656588
-2.722376
0.243526
0.454130
0.083835
-1.219658
-2.521911
-5.811320
-6.659266
-5.003937
-2.675924
-1.432440
1.541725
0.029157
1.655710
3.897995
6.825074
5.579339
6.750450
6.031037
8.649398
11.220990
14.374822
19.732016
16.451989
19.638953
16.423183
-4.796801
-10.282249
-2.266728
0.663797
0.863411
0.640457
-0.404183
-3.321348
-7.495055
-8.370724
-4.103703
0.032592
1.216979
1.013655
3.643717
4.387788
0.408881
-2.924983
-10.355760
-9.452291
-7.699431
0.048309
3.366916
9.622964
13.301193
17.911926
29.042726
30.963977
7.895186
-4.099647
-0.470774
0.310516
0.164190
0.527812
-0.082620
-3.092336
-9.003984
-5.589412
0.773037
1.578033
0.986208
1.916308
5.105989
1.035242
-3.549821
-12.188211
-19.988021
-18.312335
-15.330324
-11.837038
-13.202179
-8.813443
-1.860436
11.915461
32.683172
37.714484
13.852690
-2.108496
-0.022730
0.067258
0.234454
0.144348
0.601482
-2.383850
-8.238999
-1.028915
5.816972
5.855232
0.200449
5.731682
8.544712
1.938450
-11.493064
-17.741418
-16.769643
-11.873564
-12.753483
-17.687686
-20.670560
-19.900502
-9.849329
13.762489
31.704349
32.564466
10.191712
-1.474888
0.237706
0.933176
0.940875
0.914512
0.517193
-1.884437
-6.028844
6.017977
9.542221
9.155916
6.757847
13.413845
16.094082
-0.445319
-15.275551
-9.185292
-10.963592
-4.133857
-12.679562
-16.674230
-17.494353
-15.161510
-0.141157
16.396370
20.242726
20.930567
7.309610
-2.959821
0.422275
0.944389
0.567795
0.463891
0.861285
-3.148726
-3.157161
11.482387
8.293395
8.277386
11.297478
16.246405
14.359547
-2.840513
-13.878242
-11.265343
-11.439494
-8.942401
-18.379706
-16.998818
-13.451471
-4.314371
8.602793
8.444119
6.574126
10.210304
3.020550
-3.488941
-0.145969
0.463436
0.810531
0.530151
0.479406
-4.563582
-1.853562
12.625647
9.780522
5.516629
7.682510
8.482393
8.090977
-4.975622
-15.864301
-15.174600
-13.940135
-14.978242
-18.078957
-13.329941
-3.534450
5.814059
5.578453
0.751314
-0.284216
3.885604
0.199453
-1.922911
0.463060
0.666678
0.495193
0.952407
0.169181
-6.095196
-1.476791
13.161497
11.606585
7.326158
3.864257
3.180209
3.273127
-4.369430
-10.962118
-14.536504
-17.606182
-14.036215
-7.612526
-1.076111
3.519271
5.911646
-0.632128
-2.898087
0.116911
-0.728946
-0.490492
-0.244091
0.551480
0.413656
0.834431
0.178783
0.083410
-8.595805
-3.861516
9.738799
9.348208
11.114682
8.436096
2.499374
-0.310407
-1.299076
-5.325804
-7.169246
-9.681799
-4.020498
-1.115602
0.867049
0.444369
-0.985566
-5.558594
-3.371792
-2.640613
-4.652343
-0.632242
-1.062662
-0.182463
0.855580
0.374947
0.470126
-0.634341
-8.670905
-6.692759
3.257379
4.649878
6.353364
7.391330
6.920192
3.803100
4.500564
4.454626
5.153252
2.581481
0.098033
-2.150146
-1.558762
-1.876772
-3.835172
-2.793014
-1.446960
-3.965267
-4.249876
-0.640710
0.283371
-0.161637
0.324008
0.516434
0.523501
-0.394625
-7.587291
-7.671007
-0.760133
0.751689
-0.767809
1.241211
5.389225
6.437531
6.924905
8.117442
5.690748
2.778035
0.224039
-2.233056
-1.923236
-4.566686
-2.036891
-1.806289
-0.176113
-3.024616
-3.678013
0.122878
1.493751
1.005511
0.067122
0.694495
0.836534
-0.490323
-4.738714
-5.224655
-1.541430
-0.891255
-1.165681
0.299963
6.132814
6.818908
5.866613
1.641114
-0.280558
0.900129
3.592357
0.430910
-3.221186
-3.474361
-2.259189
-3.633897
-3.407168
-3.267080
-2.174929
0.904336
1.361864
0.946285
0.611175
0.167232
0.350941
-0.369297
-2.671537
-5.597809
-1.529178
2.478783
2.911103
2.939674
6.660653
8.438215
11.139221
12.131101
12.629630
9.205080
5.456841
2.513372
0.370916
-3.509748
-2.994909
-5.455193
-4.048770
-2.019422
0.325915
1.099762
0.086518
1.043898
0.575127
0.434614
0.947050
-0.063275
-0.772587
-3.354848
-3.682520
-2.294878
-0.023629
0.189533
3.031922
4.967773
8.516059
10.261687
7.412006
7.359784
7.838742
6.685605
4.047279
0.070493
-1.033919
-2.977808
-2.919606
-0.936420
0.007597
0.817562
0.780830
0.507116
0.141545
0.280892
0.614399
0.808480
0.032984
-0.842137
-1.944027
-3.920717
-7.601863
-9.724299
-12.239950
-12.522375
-13.440557
-10.830817
-11.577543
-9.200989
-3.511702
0.679457
3.121951
4.166925
3.161049
0.427504
-0.773615
-0.761660
-0.602906
0.542091
0.330770
0.842444
0.348216
0.443648
0.002594
0.157317
0.206660
0.124420
-1.256308
-4.728979
-8.499919
-12.920038
-14.659650
-14.521960
-14.411203
-13.627412
-12.814744
-10.496091
-6.298602
-4.634589
-3.057388
-0.069238
0.425082
-0.671458
-0.282651
0.152876
0.418694
-0.099114
0.076952
0.027927
0.810236
0.906034
0.974456
0.133122
0.918329
0.217721
-0.877971
-1.978648
-4.697311
-7.286051
-9.791541
-9.717547
-10.105245
-10.173827
-10.133820
-9.813159
-7.852221
-5.397368
-2.875998
-1.862896
-0.354020
0.058243
-0.311728
-0.097917
0.306483
0.799510
0.284397
0.836085
0.234016
0.814844
0.744804
0.819910
0.709586
0.345532
0.486769
0.249290
-0.000716
-0.622729
-0.672911
-0.444004
-1.330949
-1.762363
-2.425365
-2.839179
-1.779421
-1.534648
-0.507673
0.243143
0.323185
-0.185221
0.196842
0.159346
0.754090
0.461806
0.920866
0.907254
0.477065
57.915010
