0.001251
0.563585
0.193304
0.808741
0.585009
0.479873
0.350291
0.895962
0.822840
0.746605
0.174108
0.858943
0.710501
0.513535
0.303995
0.014985
0.091403
0.364452
0.147313
0.165899
0.988525
0.445692
0.119083
0.004669
0.008911
0.377880
0.531663
0.571184
0.601764
0.607166
0.166234
0.663045
0.450789
0.352123
0.057039
0.607685
0.783319
0.802606
0.519883
0.301950
0.875973
0.726676
0.955901
0.925718
0.539354
0.142338
0.462081
0.235328
0.862239
0.209601
0.779656
0.843654
0.996796
0.999695
0.611499
0.392438
0.266213
0.297281
0.840144
0.023743
0.375866
0.092624
0.677206
0.056215
0.008789
0.918790
0.275887
0.272897
0.587909
0.691183
0.837611
0.726493
0.484939
0.205359
0.743736
0.468459
0.457961
0.949156
0.744438
0.108280
0.599048
0.385235
0.735008
0.608966
0.572405
0.361339
0.151555
0.225105
0.425153
0.802881
0.517106
0.989990
0.751549
0.345561
0.168981
0.657308
0.491897
0.063540
0.699759
0.504807
0.147496
0.949583
0.141575
0.905118
0.692892
0.303049
0.426557
0.070376
0.966613
0.683187
0.153233
0.877255
0.821680
0.582049
0.191351
0.177892
0.817194
0.475265
0.155553
0.503922
0.758154
0.406329
0.255371
0.563035
0.651147
0.756998
0.804995
0.482862
0.121924
0.344813
0.889984
0.036827
0.547051
0.643601
0.303811
0.149866
1.095693
0.938226
0.570155
0.273774
0.469579
0.375109
0.939395
0.309213
0.395647
0.319382
0.943397
0.298103
0.764794
0.542952
0.195900
0.761320
0.843293
0.397337
0.498381
0.892143
0.025818
0.994641
0.573655
0.049495
0.531327
0.194067
0.843043
0.626759
0.657613
0.197851
0.842158
0.123325
0.109928
0.743126
0.314066
0.941069
0.286081
0.336314
0.140263
0.733085
0.834620
0.707999
0.600238
0.747215
0.252724
0.144475
0.001617
0.061007
0.806238
0.852626
0.210578
0.115604
0.553209
0.014252
0.113773
0.454512
0.752220
0.686148
0.543443
0.073885
0.436720
0.201941
0.696219
0.290353
0.436689
0.232429
0.577868
0.532579
0.628681
0.160192
0.504135
0.963042
0.695761
0.924802
0.189947
0.335948
0.178350
0.995178
0.457442
0.998016
0.097507
0.625172
0.094394
0.437727
0.931516
0.048433
0.894620
0.290017
0.227302
0.769066
0.410718
0.201971
0.628071
0.604144
0.451613
0.466353
0.597827
0.634724
0.854793
0.828791
0.624775
0.720908
0.565752
0.375134
0.184271
0.737907
0.555132
0.905087
0.242866
0.188940
0.604724
0.698508
0.584613
0.351299
0.494461
0.080386
0.740745
0.612049
0.620380
0.691122
0.804529
0.149113
0.576037
0.867733
0.911557
0.614704
0.727683
0.043214
0.667776
0.976531
0.315012
0.569201
0.305826
0.173925
0.108554
0.869045
0.851222
0.744316
0.154881
0.326914
0.079348
0.076601
0.640980
0.820002
0.545091
0.448256
0.408979
0.298746
0.465560
0.501205
0.152654
0.323038
0.737999
0.313883
0.826685
0.959075
0.873348
0.725028
0.300058
0.943999
0.127232
0.065737
0.784967
0.524583
0.609638
0.956114
0.072268
0.875637
0.653859
0.322123
0.104801
0.505051
0.227088
0.290292
0.919980
0.551164
0.662801
0.114536
0.492538
0.379131
0.496811
0.793359
0.509262
0.382366
0.689086
0.527768
0.603779
0.396617
0.002889
0.708162
0.105375
0.624490
0.863634
0.490209
0.750235
0.485219
0.371631
0.789394
0.540843
0.359164
0.972231
0.634053
0.179383
0.370122
0.181307
0.820071
0.862546
0.589731
-0.179024
0.344663
0.289261
0.589511
0.246114
0.818646
0.955809
0.754057
0.478839
0.830844
-0.493945
0.172913
1.287732
0.520920
0.453082
-0.023611
0.112838
0.577782
-0.047552
0.335695
-0.355396
0.904891
1.817838
0.783701
0.651651
0.492640
0.562722
0.728708
-0.475167
0.856626
-0.551081
0.709497
1.487941
0.807156
0.048842
0.399071
0.427064
0.049095
-0.627922
0.691039
-1.318777
0.447389
2.992261
0.099635
0.383729
0.788738
1.109561
0.546420
-0.898653
1.229766
-1.636178
1.175304
3.094136
0.672539
0.465335
0.066034
1.019910
0.967581
-1.804204
0.912656
-1.573362
0.790337
3.370054
-0.039953
0.845211
-0.153815
0.711157
-0.056871
-0.869758
0.843319
-1.840655
-0.057732
3.522823
1.069057
0.376293
-0.064140
0.928715
0.552258
-0.991478
1.621095
-0.660069
0.292248
2.895410
0.084431
0.763873
0.651488
0.112093
-0.092608
-0.416492
1.042039
-0.375622
0.987100
2.728342
0.808675
0.142705
0.656891
0.411498
0.399940
0.393895
0.934386
-1.076063
0.474516
1.974087
0.164636
0.134909
0.389162
0.759517
-0.283227
-0.179335
1.390598
-0.365030
0.854296
2.680823
0.604040
-0.011778
0.434325
0.533305
0.325712
-0.862954
1.497732
-0.056177
0.708718
1.916265
0.716573
0.713486
-0.266309
0.226616
-0.165909
0.393166
0.936014
-0.258829
0.723698
1.880817
0.894109
0.082268
-0.055406
0.172205
0.183936
0.442375
0.215622
0.444747
0.316929
1.354755
0.999670
0.053611
0.860077
0.675421
0.642459
0.030272
0.545329
-0.273946
0.806556
0.780346
0.531019
0.210064
0.884887
0.038382
0.167970
0.131331
0.337499
-0.021367
0.676726
1.171865
0.978743
0.122859
0.724215
0.689236
0.645906
0.897045
0.492719
0.853104
0.665405
0.226991
0.621068
0.553822
0.422549
0.943022
0.540574
0.578570
0.536454
0.255287
0.396954
0.350261
0.036622
0.795251
0.196509
0.070284
0.389416
0.590747
0.070925
0.197668
0.155889
0.644337
0.454329
0.604297
0.697348
0.441298
0.684469
0.396527
0.835719
0.592212
0.199591
0.949461
0.876003
0.391705
0.987457
0.185308
0.895718
0.574450
0.442061
0.627338
0.708518
0.049623
0.285562
0.260201
0.407636
0.895322
0.710196
0.728446
0.896054
0.393567
0.397412
0.903867
0.308603
0.388104
0.570574
0.353557
0.733695
0.745354
0.736381
0.739433
0.139317
0.200171
0.272591
0.680441
0.911130
0.368933
0.514844
0.105213
0.908340
0.199058
0.518074
0.661943
0.453380
0.689429
0.073930
0.084576
0.079528
0.023675
0.362859
0.297337
0.697876
0.144634
0.387766
0.071318
0.674494
0.733170
0.177345
0.616544
0.635512
0.573271
0.514342
0.214728
0.548283
0.076303
1.010060
0.437670
0.987242
0.700433
0.521329
0.637044
0.724719
0.438139
0.390867
0.057987
0.796619
0.010026
0.023460
0.088309
0.772368
-0.479027
0.704287
1.169986
0.002564
0.562115
0.466241
0.517079
0.668463
-0.182903
0.266588
-1.194514
1.729097
2.630967
0.879162
0.586519
0.470813
0.170595
0.161598
-0.901064
0.012999
-3.411109
2.184110
4.141514
-0.211461
0.802519
0.567392
-1.218114
0.065905
-1.386430
0.611946
-5.056574
3.441307
7.670695
0.336632
1.418461
0.672397
-1.412982
-0.765923
-3.386046
1.225696
-8.799866
4.022952
12.751874
-0.165374
1.412285
0.554543
-0.204228
-0.215124
-6.031840
2.292028
-11.922260
2.380606
16.960215
0.599236
2.643831
-0.627807
0.210680
1.964645
-9.510347
3.825770
-15.620235
2.001020
24.455725
1.531779
2.238833
-1.578599
-0.277292
1.008751
-13.813332
4.910572
-16.991842
0.215337
31.403499
2.302535
1.267901
-3.325031
-2.247701
0.252637
-16.102310
6.490307
-16.439693
-1.837844
36.694191
4.500133
0.226547
-3.489462
-3.365051
-0.375025
-16.750195
8.123438
-14.225281
-3.532376
38.717370
5.474898
1.224755
-4.024628
-6.864428
-0.370227
-17.212116
9.335843
-12.668932
-2.922663
41.670633
5.135735
0.772265
-4.354430
-7.647061
-2.212563
-16.642399
9.365544
-10.214880
-2.391075
38.259847
5.224631
0.649563
-4.031192
-7.419629
-3.374561
-13.818299
8.266911
-7.646467
-2.996387
34.791776
4.909200
0.736972
-3.230102
-7.179573
-4.024350
-10.685075
6.273642
-5.013938
-3.642476
28.924019
5.166576
0.664193
-1.946122
-5.292564
-3.933813
-5.752594
4.622518
-3.810253
-3.668232
19.731170
3.825674
1.577947
-1.062283
-2.853083
-2.742240
-3.613698
2.410623
-3.444668
-3.212192
12.993137
2.149037
1.238752
-0.078853
-1.113368
-1.052830
-1.954010
1.430453
-1.872398
-1.785012
6.727577
2.035273
1.192991
-0.095640
0.277308
0.025214
-0.069316
0.497055
-0.492670
-0.525572
2.969856
1.215152
0.113343
0.777013
-0.125152
0.353417
0.607790
1.192711
0.122326
-0.148816
1.013682
1.041889
0.258348
0.512187
0.554327
0.059919
1.081519
0.839710
0.057449
0.414066
0.778522
1.106598
0.652298
0.638359
0.621204
0.946104
0.688162
0.289804
0.567156
0.290384
0.548235
0.712363
0.246437
0.546678
0.492630
0.952055
0.669820
0.765160
0.623371
0.445753
0.798761
0.745537
0.988922
0.204627
0.629475
0.909818
0.591296
0.918394
0.505539
0.489395
0.449721
0.889340
0.940397
0.182928
0.251961
0.203009
0.730491
0.941130
0.625080
0.041353
0.641346
0.034516
0.556352
0.544481
0.457737
0.067497
0.982175
0.127846
0.595589
0.056175
0.168792
0.698387
0.326019
0.278725
0.616370
0.425133
0.407804
0.236493
0.613228
0.159844
0.572114
0.488728
0.828507
0.412930
-0.063325
0.380632
0.332930
0.112069
0.753163
0.772689
1.012822
0.590201
0.736296
0.514125
0.439690
0.730648
0.967230
0.892041
0.099511
0.228215
1.006516
0.887129
0.560908
0.080657
0.188441
0.081784
0.694242
0.202383
0.035098
0.833504
0.735227
0.537459
0.328646
0.639367
-0.988445
-0.856576
2.944816
-0.672354
-1.820411
2.636846
1.907591
0.865166
1.225933
0.803880
-1.320715
-2.007061
5.152697
-3.401394
-3.567019
3.833327
2.617439
0.755197
2.139575
0.920416
-4.007570
-4.102278
8.968991
-5.423648
-6.845742
5.955680
4.888282
2.223460
2.417469
1.550487
-3.484693
-4.715616
11.008117
-5.243307
-11.187515
6.672599
7.920053
1.662136
4.701943
1.406458
-0.789347
-4.506724
10.610718
-2.405272
-14.626268
5.576215
9.174937
2.839073
4.759004
-0.768282
-0.887995
-4.431256
10.091252
0.874204
-18.020585
3.280080
12.941406
4.257069
4.111219
-2.594295
-0.686060
-3.953118
7.847212
2.167389
-21.970878
0.934235
18.893841
6.006535
3.495301
-4.075886
-5.451190
-5.318224
2.736163
6.793582
-21.988548
-2.137399
31.489195
8.495960
0.376254
-3.899710
-8.722260
-5.484028
-0.382262
9.168723
-20.766542
-5.533956
40.546083
12.125595
-3.612423
-5.416365
-11.889644
-8.596516
-2.299130
11.308134
-18.125354
-6.487964
48.861214
13.145126
-6.973355
-5.009487
-15.111931
-9.080949
-6.211645
13.692612
-17.349713
-8.115972
58.037957
12.667103
-8.252581
-5.093375
-18.133279
-12.594188
-9.942767
13.836921
-14.679463
-8.790062
62.687275
12.562718
-6.202415
-4.053548
-17.673174
-14.920438
-10.353670
11.374275
-11.126347
-11.684565
57.233709
10.556944
-3.238396
-3.067639
-14.223765
-13.212999
-9.407769
10.325831
-9.558278
-11.688255
43.740524
8.744211
0.399075
-1.158004
-9.604313
-9.835934
-7.373473
6.757373
-6.883295
-8.098212
29.371426
5.542515
2.569543
0.564419
-5.665056
-5.166676
-4.691461
3.319912
-3.087094
-4.015622
16.923769
3.145029
2.382612
1.518601
-1.629520
-1.953771
-2.601671
2.041764
-1.177171
-1.801301
7.382645
1.777073
1.701707
0.650474
-0.578295
-0.567790
-0.879025
1.389529
-0.917274
-0.035226
4.487283
1.087935
0.666708
1.129513
0.409054
0.360547
0.364020
0.231106
0.734939
0.035015
0.654435
0.503092
0.559834
0.635036
0.952091
0.552970
0.765426
0.436053
0.786700
0.730213
0.244365
0.535016
0.000459
0.020239
0.748314
0.333872
0.902127
0.462264
0.767907
0.050508
0.630970
0.024171
0.682424
0.969085
0.500443
0.706381
0.265938
0.822352
0.646626
0.597217
0.263619
0.844234
0.460067
0.748161
0.350739
0.015031
0.469849
0.634910
0.397670
0.382919
0.022898
0.289380
0.602175
0.887872
0.452565
0.959481
0.349242
0.563396
0.003283
0.975711
0.809415
0.478295
0.672999
0.325412
0.547222
0.481997
0.498644
0.152122
0.280072
0.214854
0.949945
0.941450
0.998165
0.589313
0.341760
-0.112120
0.092610
1.053716
0.454504
-0.107599
0.949927
0.219347
0.817582
1.083745
-0.366300
-0.356975
0.839995
2.206094
0.974270
-0.248470
-0.282838
0.734996
1.055747
0.328892
-1.573858
-1.336093
3.528163
2.079237
0.308228
0.344719
-1.650479
1.857769
0.552031
0.605785
-3.342602
-4.584463
6.400660
2.367052
0.479353
-0.324733
-2.803470
2.588258
1.561798
1.778503
-5.509219
-6.747512
9.999488
1.098308
0.149944
0.028990
-3.070116
4.477000
3.686423
2.511029
-8.428526
-9.258668
16.486458
1.411022
-4.303995
2.533889
-4.283687
6.668486
3.886534
4.489911
-8.942491
-10.706999
16.571532
4.739045
-10.976934
3.644389
-5.377240
6.886998
3.764773
6.086640
-6.207214
-8.041418
17.970992
6.944993
-12.057764
1.093961
-9.308147
7.539639
2.717914
7.595426
-0.331618
-2.759370
19.309076
2.830365
-11.523437
-5.327100
-10.980876
6.156696
1.469178
7.111072
3.358286
3.133535
17.813852
0.262285
-13.131282
-8.443832
-9.098551
5.140972
-0.459903
9.446918
0.321459
5.095953
14.031637
-1.356206
-11.803226
-4.391617
-4.557431
5.378573
-4.823312
11.392677
2.262633
3.017192
12.148003
0.915285
-11.959508
-1.041912
-4.635387
4.346519
-8.816396
13.689548
-1.660055
-0.265009
15.479074
0.233326
-10.808012
2.656169
-1.503700
6.450720
-14.611657
12.001007
-2.547569
3.105986
9.073231
1.882276
-11.342233
0.696756
7.398966
8.829927
-18.066291
10.419770
-3.456372
3.437501
2.400077
5.000410
-13.488675
-1.706227
12.703330
8.752476
-17.306468
8.908029
-3.384311
6.412689
-3.362519
4.232773
-12.951341
-5.557767
16.468218
10.465159
-14.172644
8.864697
-5.847547
4.793169
-6.784260
0.973503
-9.234871
-4.610445
16.584792
11.939077
-7.766477
5.426509
-6.497520
3.303027
-8.271129
-0.677541
-6.938909
4.205332
14.129699
11.115099
-5.607888
2.480251
-7.556531
0.934519
-8.131616
-0.571091
-0.258155
10.031261
9.337516
7.799625
-5.319359
1.975287
-6.237330
-1.440377
-5.423209
-1.196735
1.043272
12.697016
4.940943
5.277489
-3.654657
0.377916
-3.281839
-2.030134
-3.068642
0.617508
0.126270
7.071729
2.625836
2.704670
-0.626410
1.003931
-0.751845
-0.460701
-0.254744
0.752576
-0.197868
2.404210
1.204299
1.383324
0.787701
0.511887
0.594988
0.825919
0.661113
0.795796
0.350106
0.831589
0.117162
1.111760
0.428523
0.072497
0.240165
0.228567
0.388094
0.799494
0.238208
0.874259
0.450796
0.736854
0.240633
0.063938
0.604572
0.353984
0.361248
0.668111
0.976043
0.223640
0.895779
0.346965
0.953520
0.665120
0.201666
0.282357
0.355449
0.531999
0.290994
0.219977
0.099612
0.106723
0.709342
0.843806
0.596371
0.851081
0.002842
0.535575
0.570354
0.879250
0.356413
0.591539
0.785187
0.874760
0.795195
0.864358
0.345691
1.300919
0.710068
-0.157757
0.476127
0.616993
0.350510
0.891002
-0.499158
0.211472
-0.827037
4.312858
0.227729
-1.383174
-0.034016
0.061962
0.895536
0.259976
-1.694074
-1.033864
0.094000
8.241775
0.790344
-3.233566
-0.889982
1.719799
0.792001
-0.847916
-1.872672
-3.637474
2.667346
10.514193
4.138359
-4.278459
-3.780977
2.711078
-1.147378
-0.727165
-4.297784
-6.964540
7.021539
10.621952
5.279713
-3.729148
-4.206499
3.433768
-2.180233
-0.054954
-7.607715
-8.989581
10.378752
11.715233
3.083157
-2.519059
-3.415220
4.994159
-3.759825
2.486714
-9.450177
-10.395669
12.843696
14.121122
2.281589
-0.320985
-5.202870
4.207222
-6.133765
4.404649
-9.272056
-10.820567
13.473859
18.736725
-5.022143
0.726558
-5.684531
3.720303
-10.705880
8.157891
-5.341750
-8.023565
13.308988
20.108152
-9.950312
-0.644073
-10.748986
2.026003
-7.977423
11.970420
-0.121464
-4.236636
10.509002
17.625132
-11.803026
-9.019135
-7.023031
1.571244
-2.066436
9.553265
5.579063
1.570010
10.385991
13.295421
-8.939142
-12.876343
-8.494662
0.928177
1.664747
3.015527
4.626252
3.985611
9.509788
6.316035
-2.074379
-12.172961
-8.588600
4.042186
9.287510
-9.855225
4.646179
4.110577
10.923427
2.189583
3.224177
-12.707515
-8.423899
8.706361
13.125284
-19.118285
4.694078
1.338172
8.391347
-1.624589
6.060431
-9.705797
-5.478603
10.371226
16.977869
-23.225366
4.015744
3.082619
10.093954
-11.387129
1.514281
-3.509803
-6.720015
10.073971
18.211420
-18.396105
1.758009
5.575509
5.643218
-10.908221
-0.321904
-1.033066
-7.119828
9.861170
11.854943
-11.373690
1.748345
9.753842
1.084851
-9.299486
-1.557964
3.510828
-9.433590
8.018292
4.948934
-6.402001
-1.749082
11.049259
0.843247
-10.756751
0.541125
14.062195
-11.147576
8.274983
-2.158643
-4.593578
-3.741851
9.227273
-0.095903
-11.031624
3.755205
21.242953
-9.364488
11.011417
-7.957049
-5.844649
-9.376712
2.782436
-1.864731
-7.825585
8.600257
29.195180
-6.798811
10.132779
-10.683006
-6.289880
-11.314376
-0.457719
-3.436665
-3.220526
10.274090
30.841822
-3.662739
8.053360
-10.496195
-6.952439
-8.908813
-3.961468
-1.680172
0.287400
3.052530
23.674750
-1.251489
6.708356
-5.910122
-2.549075
-3.208297
-2.278145
0.387283
1.887367
-0.863091
9.408563
-0.250918
2.354126
-0.054272
-0.149528
0.013613
0.301437
0.439374
0.561025
-0.825851
2.389733
-0.012194
1.133573
0.389613
0.352364
0.116412
0.840805
0.608816
0.775038
0.145085
0.503970
0.836087
0.425826
0.643639
0.852282
0.174444
0.322672
0.963195
0.709403
0.197546
0.862880
0.047304
0.743217
0.036042
0.130833
0.081425
0.551587
0.568084
0.539070
0.219385
0.077127
0.305105
0.063968
0.411940
0.130835
0.223600
0.705150
0.535453
0.413271
0.889116
0.900772
0.178047
0.517713
0.634681
0.397137
0.356440
-0.108873
0.098133
4.021537
0.351130
-1.220174
0.637238
0.657272
-0.194717
0.103462
0.357709
-0.356979
-1.371391
8.899436
1.164848
-3.599674
-0.290215
0.682228
0.344108
-1.253821
-0.432659
-2.778241
-1.236028
11.883363
1.491976
-4.302157
-1.837352
1.256556
0.214802
-1.416155
-0.232986
-5.147581
1.926885
14.075139
2.272431
-4.074922
-3.618206
2.142809
-2.538729
-2.621260
-1.471682
-7.044635
5.493613
12.855819
4.884201
-4.640416
-2.920605
2.814850
-4.776921
-2.245791
-2.835535
-9.847815
6.268440
16.203166
2.660810
-4.685903
-1.795552
2.215047
-5.940662
-1.499316
-4.493297
-10.993428
6.738175
18.886630
2.036719
-1.674952
-2.780475
-0.018070
-7.252428
0.813851
-5.126118
-11.619441
7.191638
20.402491
-0.374418
1.603951
-5.228951
-2.299408
-7.061016
2.548457
-3.107908
-8.198617
5.547528
18.873891
-6.880950
1.202285
-5.869392
-4.454881
-4.388199
6.396968
1.734457
-6.719726
6.550815
14.416392
-10.806840
-2.105431
-3.478645
-6.203431
-1.452814
5.840057
7.239006
-1.871761
6.260007
11.629695
-14.770919
-4.343168
-5.740160
-5.688093
-0.522375
10.776490
6.082388
-0.076665
6.390477
7.794553
-16.885291
-1.161108
-6.961521
-5.340091
1.486812
11.742097
4.916120
-6.462894
5.957236
9.950793
-14.182575
-6.599457
-5.461342
-7.521708
8.625530
12.774791
4.879741
-7.719242
4.747116
9.015307
-13.017353
-7.388352
-5.947218
-5.275712
5.320731
15.052258
6.332797
-3.280324
4.175134
0.207390
-10.330005
-2.391686
-8.257855
-6.374887
5.666301
13.920036
7.107837
2.898513
4.429365
-2.598705
-5.437293
3.773587
-13.199388
-8.345809
1.117412
12.715636
2.884701
4.271418
4.108897
-6.558336
4.731017
7.588100
-17.760751
-6.287302
5.434162
2.966626
1.293492
5.624148
3.348608
-3.618595
7.485193
12.016695
-20.524203
-2.770117
1.526666
-1.557559
0.864941
1.622984
2.602738
-5.931761
8.623913
15.598171
-17.986715
4.605209
0.527825
-8.852994
-4.872112
-1.971210
0.216427
-8.015014
13.533662
28.260300
-13.577460
5.998951
-3.087622
-13.321044
-14.947993
-3.494984
-2.609628
-4.641297
13.386823
43.809617
-8.848026
4.855960
-5.442403
-12.428401
-17.018908
-5.221179
-0.312011
-0.648237
2.407914
45.441910
-4.562136
3.647747
-5.729685
-7.854812
-7.843800
-4.323536
1.397751
2.511583
-2.950875
23.359678
-0.981487
1.272008
-0.878708
-1.839664
-1.579368
-1.272370
0.776302
1.825298
-0.691170
6.458734
0.363597
-0.375346
0.032013
0.290320
0.308537
0.218604
0.821425
0.615653
0.166516
1.189471
0.326068
0.535838
0.255154
0.119407
1.001159
0.049220
0.396462
0.101202
0.407787
0.431667
0.271561
0.476523
0.224844
0.249451
0.597139
0.841052
0.811667
0.697735
0.414118
0.184506
0.988656
0.943239
0.369622
0.513889
0.359257
0.495095
1.060204
0.263794
0.136600
0.089810
0.639064
2.066631
0.577067
-0.283883
0.488357
-0.341534
0.221374
4.237749
0.301001
-1.496427
0.148168
2.875398
-0.030628
-0.609355
-0.406255
-0.098372
-2.557402
10.507543
0.542604
-5.146852
-1.076049
3.527070
0.888851
-2.226547
0.574401
-2.009657
-1.556393
11.217604
1.043574
-2.870401
-3.296642
5.412994
0.940350
-4.987415
1.606591
-4.226526
1.406941
9.202370
-0.048845
-2.481832
-3.585237
7.168418
-0.975501
-6.396644
1.100618
-4.168275
0.662126
3.839976
1.430269
0.053043
-0.714280
7.392929
0.603918
-6.844565
-0.416199
-7.023357
0.179095
1.878705
1.184327
2.546350
-1.886728
6.782877
2.973430
-5.923154
1.514760
-6.295314
-1.887381
1.701283
2.082365
1.885582
-1.764222
8.254363
2.937664
-7.594517
-1.375300
-7.266656
0.440241
0.450312
2.296705
6.675668
-3.981629
8.396245
2.908858
-7.654648
0.316535
-8.561722
2.745537
0.890882
-4.186736
6.143460
-2.348465
5.809264
-0.290983
-2.026117
5.013482
-5.199310
2.862919
3.297742
-13.526067
0.186614
-3.150245
2.973344
-3.078482
8.196286
8.375799
0.782583
3.714628
1.795613
-18.549731
-4.264794
-7.452955
-3.852951
-3.605074
22.331328
10.224865
1.096606
4.328810
1.639439
-24.533437
-3.373510
-6.764420
-12.388742
-5.098649
37.763051
9.347705
-3.446989
0.517969
3.772874
-22.877507
-7.753096
-4.491264
-16.785481
1.471452
43.158756
7.253511
-3.044868
-1.408648
2.141703
-14.982715
-0.786702
-7.797662
-12.798787
-5.428265
36.885672
11.050385
6.544261
-4.224810
2.337073
-8.560851
1.212541
-8.225928
-5.697999
-10.868277
19.852512
9.335057
6.362925
-0.676490
-1.982518
-1.227941
3.244350
-11.470757
-1.084462
-4.354331
5.790122
3.133431
3.044113
0.916238
1.671343
5.013171
2.417540
-10.822887
4.438769
-5.195405
-0.956867
-1.424514
-0.000374
1.321269
4.909996
3.452107
-0.290935
-11.120273
4.552810
0.697879
-1.979836
-1.360767
-1.805395
4.870679
0.651874
5.393361
-0.231547
-11.499139
4.020787
3.761062
-6.211775
-3.662582
-1.676561
4.399574
-3.374433
6.292107
9.583290
-11.836480
4.839032
3.214051
-10.829987
-15.421139
-5.390572
-3.853757
-2.930636
3.616393
44.114234
-8.008216
0.133424
5.156617
-12.550720
-22.880521
-7.085816
-1.484028
-0.759934
-5.811398
63.021493
-4.117180
-1.712552
0.961684
-8.212571
-13.113623
-5.198040
1.638455
3.148674
-7.635794
39.142468
-2.432023
-2.060837
-2.109495
-2.131100
-3.048959
-1.251120
0.746420
1.995107
-2.222198
9.266542
-0.576131
-0.337782
-0.026189
0.320839
0.544895
0.408893
0.110496
1.051155
0.574672
0.587914
0.157819
0.377479
0.311536
0.930470
0.526475
0.793900
0.598516
0.760622
0.570278
0.830910
0.294106
1.079266
0.857092
0.279023
0.148720
0.166613
0.951687
0.680583
0.329954
0.064043
0.253320
1.381380
0.404134
-0.152016
0.227532
0.749271
0.611368
-1.017318
0.157806
1.107001
0.502003
4.876728
0.073498
-0.952986
-1.148254
-0.405898
-0.530184
2.036380
0.756351
-0.681656
1.107348
9.935587
-0.662377
-2.853059
-2.184596
0.277870
-2.251819
8.022818
1.124574
-4.628356
-0.978948
11.472476
1.839150
-5.682576
-1.889851
-2.602976
-1.040586
6.696496
2.951003
-0.567521
-2.325102
13.125631
1.252854
-10.650508
0.916452
-3.336988
0.265737
0.853584
1.350781
-0.404563
-2.663874
11.897703
3.493208
-9.545045
0.675240
-4.885021
-3.113555
-7.059893
2.625320
3.213293
-0.371295
15.259786
6.400429
-12.227297
1.004126
-3.945162
-3.438414
-12.073830
2.159096
6.327552
0.954809
15.864225
4.875074
-9.997509
1.533138
-3.803399
-4.175841
-11.289380
7.296678
2.722275
-1.049182
14.717184
8.571686
-12.821909
0.281120
-4.441554
-0.766154
-9.529239
3.664636
3.537355
-1.609778
17.015414
8.444177
-10.778408
-2.281009
-9.580171
-0.365423
-3.674535
-2.233655
6.423839
1.013214
17.410589
4.238497
-7.082263
0.471860
-8.719781
-0.327219
-0.129493
-11.546293
0.448382
-2.618486
15.573155
6.207490
0.771721
4.649041
2.990540
1.734452
-2.481989
-17.293149
-5.970342
-4.771310
9.104454
3.433389
10.694195
8.354276
6.261009
7.137444
-4.268884
-22.411867
-3.936555
-5.635631
5.804237
-2.499451
15.467948
11.300412
4.773082
3.121187
-5.703822
-18.408216
-0.243603
-9.606305
2.743007
-0.544544
15.737429
14.022050
5.319928
-2.719745
-3.847673
-13.061682
2.164087
-12.546127
2.109289
-4.104749
15.083029
10.804242
13.141285
-1.040111
-1.261682
-3.859676
2.694413
-12.334672
4.461022
-13.777394
5.815029
6.028694
7.026484
-0.281385
6.024996
4.092242
-0.300551
-13.619315
2.695242
-7.404930
1.512003
4.349964
-2.291448
0.259205
7.494039
5.345263
-3.018596
-10.836498
4.183801
-0.136089
-4.437608
3.727546
-5.042484
1.023405
8.145740
6.823437
-1.728211
-10.127808
1.691637
-1.274239
-1.255261
-0.958643
-3.524271
2.168027
5.954047
4.685609
-3.585289
-9.401612
2.775123
3.525957
-1.133496
-2.651790
-3.651066
1.657464
1.961662
0.872062
-0.928637
-11.031670
5.930110
10.621437
-4.698961
-11.446820
-6.880149
-5.964555
-2.165600
-6.614863
36.664080
-7.337854
-0.391107
12.775477
-6.365436
-23.424981
-8.358245
-5.431066
1.477254
-10.491042
68.679911
-5.315632
-6.764681
6.205154
-5.506597
-15.957740
-7.176699
-0.091354
3.919076
-9.526361
48.336744
-1.723751
-4.495404
-1.054674
-1.011676
-3.141969
-1.337321
0.994998
2.146477
-2.110019
10.025995
-0.118794
-0.477378
0.084745
-0.023059
0.670795
0.648678
0.761201
1.133402
0.649541
0.558025
-0.053672
-0.065886
1.207420
0.350199
0.213853
0.647702
0.191577
0.308487
0.703949
0.650153
0.950966
0.291982
0.624161
0.137005
0.366416
0.133985
0.293560
0.328595
0.450866
0.715905
0.978662
2.031889
0.518052
-0.083413
-0.879700
-0.281093
-0.020285
-1.820260
0.356764
0.428822
1.639020
7.132643
0.401543
-1.928722
-2.627192
-0.301876
0.170298
-0.609750
0.173376
-0.126597
0.945466
14.664468
-1.326408
-5.258002
-4.048671
-0.318671
1.241665
3.204380
1.375393
-1.829553
-1.273100
20.796537
0.902386
-11.477509
-4.737022
-3.338178
2.221735
0.908471
0.943436
0.754595
-2.507015
22.101493
2.312362
-13.691522
-2.079298
-4.302151
-0.833764
-1.886642
0.140642
2.049174
-0.056446
14.861130
4.682394
-9.973886
-0.824779
-2.122372
-6.585121
-7.364705
1.593472
4.894735
4.595678
15.770411
5.371480
-12.333585
0.090043
-2.228631
-7.255340
-13.989526
0.681465
8.532158
2.965613
17.543062
8.064945
-10.607047
0.633878
-2.821122
-6.241899
-14.337300
0.923640
5.101321
-1.406169
17.001274
11.431661
-6.274636
0.031360
-6.186695
-2.674714
-12.040855
-2.987131
1.987752
1.663220
14.479436
10.419835
-1.298349
-3.784268
-11.290498
-2.186066
-9.514723
-8.269753
9.611190
0.924173
17.849315
9.726456
0.218521
0.238530
-11.518924
-2.084923
-6.784544
-7.206631
0.471958
2.395575
22.101949
6.613491
-1.239700
7.259182
1.748312
1.827974
-8.510712
-10.925257
-2.470149
2.942990
23.880287
-3.924434
-5.574394
10.087628
12.343353
6.656175
-6.410911
-19.144796
-4.475329
-2.771214
25.456082
-9.024176
-4.508416
12.654187
10.931397
5.252237
-2.093254
-12.752488
-5.109830
-12.992742
24.684290
-9.534062
-3.658351
11.207769
4.031187
2.760841
2.014704
-5.182213
-4.151074
-15.308837
24.685478
-8.475295
-4.213666
9.055527
5.118701
2.523662
3.963616
1.680694
-3.438103
-16.882107
15.965462
-8.299861
-3.563195
8.320746
1.644704
4.133229
7.045393
5.316780
-5.308000
-15.647162
7.569889
-6.570207
-0.626690
10.709149
-5.210072
0.917085
6.561883
5.802153
-5.391412
-13.081682
6.755725
1.361756
-3.165303
12.172240
-5.977117
-3.771231
9.705481
8.285001
-7.802537
-11.301546
3.733778
3.775412
-1.402829
7.324547
-4.017928
-3.109773
5.076350
5.329578
-8.457048
-11.984561
6.770894
8.955963
-3.337090
3.947252
-4.106502
0.382317
2.721884
-0.903755
-7.902625
-14.607536
7.208482
17.151629
-3.342425
-1.216662
-7.090173
-4.069139
-0.114127
-10.686453
19.083634
-10.964621
1.636033
20.445295
-2.392049
-16.484734
-8.441052
-5.146228
3.289068
-11.904393
56.863249
-6.668468
-4.498647
9.169606
-4.167981
-14.656588
-6.028262
-1.394113
4.274996
-7.726536
43.479068
-1.308306
-3.661749
0.453621
-3.776074
-2.722376
-0.849522
1.034929
2.180258
-1.397473
9.079604
-0.180479
-0.399871
1.364645
-0.506944
0.243526
0.407464
0.879710
0.759804
-0.000923
0.769912
0.151450
0.799933
1.064494
0.190082
0.454130
0.652255
-0.003776
0.178248
0.487446
0.908672
0.812102
0.397179
0.779760
0.571458
0.083835
0.135669
0.149993
0.100196
0.633070
0.580923
0.283289
2.660490
1.103018
-0.690772
-1.219658
0.142552
0.896651
-1.434997
0.286546
0.763917
0.704063
8.464391
-0.247446
-2.357042
-2.521911
-0.779335
1.906017
0.497715
0.437260
-0.267632
1.584680
16.405598
-2.025763
-6.689786
-5.811320
-1.700440
3.178453
-0.209561
0.047946
-0.337315
0.228597
24.135204
1.037454
-12.176253
-6.659266
-3.600940
4.812461
-3.095367
-1.775436
3.118170
-2.548274
21.922557
3.929957
-9.610890
-5.003937
-3.967250
-0.270327
-5.930927
-2.663956
4.727396
1.077554
13.807174
7.239756
-5.597398
-2.675924
-2.470995
-7.024469
-8.372049
-2.914670
5.966901
3.773658
10.955410
6.357480
-4.601997
-1.432440
-2.176915
-3.886332
-12.635041
-5.173905
7.602383
0.779705
7.703575
7.126641
3.596021
1.541725
-4.155105
-1.954623
-16.263070
-3.985570
7.708984
-2.015554
6.312398
8.704982
5.522201
0.029157
-6.914330
-3.065904
-17.760050
-4.459813
4.387515
0.381079
3.783226
14.944479
9.763628
1.655710
-10.110001
-3.993263
-20.190319
-2.472815
11.702207
-0.876980
4.586335
15.793390
8.544713
3.897995
-16.431198
-3.872107
-16.399755
3.958092
9.738314
3.769545
8.523858
11.152367
-0.341816
6.825074
-5.106253
-4.213714
-8.425614
-3.405744
5.035799
8.164108
14.486509
-2.803564
-6.367006
5.579339
24.405569
0.087174
4.137218
-7.633550
-2.748971
-3.723754
14.832803
-15.430930
-8.024335
6.750450
23.074432
0.219944
12.701412
-4.146094
-10.735872
-13.063479
18.653759
-18.709569
-5.400086
6.031037
-4.611011
4.488729
16.019140
-0.313680
-13.386009
-14.120209
25.618450
-13.227164
-0.879128
8.649398
-3.858997
5.237974
8.908707
6.722174
-18.228042
-13.442870
19.876513
-4.288950
-0.388279
11.220990
-3.197052
6.448723
5.252951
2.158571
-18.581504
-14.849886
11.299641
4.754775
-0.266358
14.374822
-4.303210
3.010586
4.226157
3.616387
-19.589371
-17.584676
10.140374
10.471959
1.286240
19.732016
-3.507700
-1.831409
4.794725
4.229833
-18.499650
-14.591112
9.085753
8.756975
-1.541235
16.451989
-0.875101
0.228488
1.343718
2.635546
-21.673727
-16.240306
10.491673
14.778366
-0.568975
19.638953
-0.305016
0.106726
-2.071914
-1.567445
-26.783451
-17.323697
9.295538
21.431918
2.264846
16.423183
-3.330731
-2.007851
-0.993903
-8.652691
-11.252424
-12.901663
4.245305
21.716946
2.612626
-4.796801
-5.910172
-0.187163
5.547960
-7.453997
22.603617
-7.631714
0.667519
12.043370
-2.678580
-10.282249
-3.450176
-0.708432
4.669994
-4.352414
27.877784
-2.886629
-1.494570
3.634314
-4.212415
-2.266728
-0.789723
0.362655
1.964496
-1.214669
7.230474
-0.166938
0.624214
1.316017
-0.768402
0.663797
0.745859
-0.011996
0.890436
0.808255
0.970352
0.056247
0.213156
0.352796
0.211763
0.863411
0.051226
0.443104
0.843451
0.725197
0.051885
0.318133
0.592089
0.857360
0.141219
0.640457
-0.096347
0.428569
0.226328
0.047460
0.275760
0.164174
2.336025
0.636206
-0.684987
-0.404183
0.226963
1.611629
-1.180822
-0.002423
-0.306821
0.631522
8.537848
0.197862
-2.850964
-3.321348
-0.594650
3.574580
-0.396819
-0.918415
-0.896496
0.826843
15.949380
-1.061724
-7.191575
-7.495055
-2.327790
6.423331
-2.726772
-3.116931
2.171740
-0.413370
20.553332
0.551408
-7.613336
-8.370724
-2.570835
3.068049
-6.333747
-5.027262
7.032724
-0.772089
11.731521
4.608302
1.244367
-4.103703
-2.318704
-6.190409
-8.311723
-6.653396
8.997704
3.118956
5.014286
5.872485
4.393291
0.032592
-1.470057
-7.570506
-13.100918
-10.681007
9.790065
2.400167
0.329135
4.894020
10.033749
1.216979
-0.739017
-3.788294
-14.717887
-8.981137
8.162772
-0.217167
-2.734583
6.847727
14.982072
1.013655
-5.272083
-4.497930
-15.754203
-6.295734
8.170327
1.660786
-3.263098
11.400752
12.961793
3.643717
-3.189925
-8.813169
-19.591202
3.592220
6.488122
-2.094791
-4.541154
14.519037
10.199497
4.387788
-7.393279
-12.057800
-21.870019
11.583324
12.002350
-2.397087
-4.442397
21.684116
2.780305
0.408881
-25.109202
-16.132548
-15.257065
8.701416
12.899089
7.512453
-1.877225
26.803703
1.052969
-2.924983
-13.783218
-19.250209
1.243771
-0.637025
10.346589
9.816361
-1.350925
15.609494
-1.631909
-10.355760
44.487527
-17.870845
20.678372
-2.626845
-0.339519
-3.344078
-4.977851
-7.547521
-3.794177
-9.452291
32.998467
-6.648430
26.342326
2.869656
-9.921701
-12.906801
0.339969
-17.724217
2.823636
-7.699431
-14.966944
2.676737
19.027448
12.899509
-12.174176
-5.362665
9.900037
-10.452048
3.875224
0.048309
-10.088767
0.640059
8.875381
11.990554
-21.081711
-8.816612
12.229670
3.645449
5.761141
3.366916
-0.148074
1.024817
0.899797
3.519751
-23.929499
-10.700340
10.913244
12.664801
3.027503
9.622964
-1.725248
3.311679
-0.160550
0.503111
-25.773875
-12.224987
6.672852
12.162466
6.995851
13.301193
-1.146716
0.506863
-0.770093
-3.476785
-25.578672
-11.622454
6.819494
10.662832
10.461017
17.911926
4.042095
1.744777
-8.708858
-2.788266
-28.651125
-9.346815
6.663602
13.533438
10.178310
29.042726
4.020130
-1.746976
-6.918326
-4.560819
-37.842476
-9.152071
4.717454
15.880201
11.678598
30.963977
2.792376
-4.589896
-1.573976
-3.521841
-30.749708
-5.594910
0.551731
14.581721
6.747798
7.895186
-0.554304
-0.288651
4.218335
-4.574054
-6.701544
-3.336207
1.061586
11.215181
0.836110
-4.099647
-1.421443
1.291860
2.870671
-2.522465
11.003825
-1.459081
-0.227029
4.538182
-1.832637
-0.470774
0.163461
0.708143
1.181209
-0.524061
3.487262
-0.118736
-0.043186
2.250441
-0.177308
0.310516
0.950753
0.624957
0.090570
0.478472
0.211575
0.295757
0.522376
0.908697
0.459376
0.164190
0.671372
0.340427
0.048919
0.127654
0.047929
0.616629
0.622814
0.157951
0.729870
0.527812
0.010833
0.214578
0.447615
0.017549
0.568849
1.033954
2.375674
0.091165
-0.479160
-0.082620
-0.386509
1.469781
-0.309359
-0.195686
-0.386573
0.635264
6.433493
0.626117
-1.816180
-3.092336
-0.792882
3.721184
-2.080500
-2.095102
0.272569
0.537556
12.931856
-0.005598
-4.172695
-9.003984
-2.418098
4.952192
-3.730487
-5.047951
3.890539
-1.532706
14.488211
2.046060
1.119311
-5.589412
-1.682745
-2.933909
-6.083764
-4.103154
10.345105
-1.165690
2.159037
1.384460
11.826077
0.773037
-0.229335
-12.302899
-8.128682
-3.869224
14.033639
2.826457
-6.697809
-2.054230
14.949343
1.578033
0.667875
-8.949979
-11.303070
-5.512018
13.321986
2.154826
-5.234696
-3.867297
14.548128
0.986208
0.474245
-5.004156
-10.158750
-3.608585
11.040834
0.484549
-5.953311
-2.057401
14.140979
1.916308
-3.744465
-8.931199
-8.499338
3.937058
7.466474
-0.083969
-10.589732
4.311388
14.573059
5.105989
0.191730
-13.676380
-7.310675
12.412500
10.367942
-4.937290
-9.889720
4.262094
6.251543
1.035242
-7.703067
-20.632875
-5.794302
11.253328
16.588737
6.154295
-6.483104
14.251491
-2.862708
-3.549821
-40.647594
-22.109100
5.307442
0.605847
16.291816
14.845851
-7.116568
33.250191
-3.706497
-12.188211
-10.967594
-23.840682
13.527436
3.196331
12.922588
4.168983
-12.082240
23.149413
-3.766538
-19.988021
70.068505
-22.785061
20.156306
-5.631456
4.310913
-4.177775
-18.727450
-2.541211
-0.569593
-18.312335
25.172929
-7.450770
14.140770
0.275649
-2.184538
-1.042808
-8.069088
-4.649741
8.816432
-15.330324
-24.202827
-5.013500
14.630202
11.905734
-6.913693
3.369011
4.925835
1.480747
8.232537
-11.837038
-13.053540
-4.013089
8.290264
15.008532
-9.653895
-1.272785
9.270520
5.653236
7.336883
-13.202179
2.744968
-0.885353
-0.473462
3.388738
-9.930888
-2.341974
4.944638
6.133673
7.713713
-8.813443
-1.159729
3.569799
-3.218404
-6.938092
-12.936210
0.418187
1.782294
8.212867
12.185085
-1.860436
0.209437
0.945931
-4.163407
-11.181171
-12.768061
0.590367
2.272388
6.838296
13.021103
11.915461
3.149705
-3.315034
-9.941814
-9.094624
-19.750016
5.726936
0.532905
8.236238
13.074601
32.683172
5.552188
-11.570048
-7.942693
-3.294424
-30.407806
7.039446
-1.967683
3.133523
14.321067
37.714484
5.912086
-13.953951
-1.632621
1.774349
-32.478178
7.637649
-3.861654
3.443108
7.439338
13.852690
1.897933
-3.326000
4.980744
-0.193396
-16.142125
4.682353
-0.172690
2.354878
0.981013
-2.108496
-1.073890
2.377773
3.108649
-0.561928
2.254941
0.560337
0.614385
2.529083
-1.214362
-0.022730
-0.240112
1.725907
1.421613
0.366012
1.032009
-0.712783
0.235155
1.567866
0.288417
0.067258
0.865375
0.459827
0.374632
0.942265
0.943121
0.846726
0.961412
0.954096
0.574500
0.234454
0.375585
0.457062
0.418845
0.178215
0.452051
0.049123
0.323206
0.792926
0.568393
0.144348
0.271270
0.899060
0.423096
0.860945
-0.037286
0.776520
0.689791
0.609475
0.213271
0.601482
0.569304
1.789578
0.146008
-0.524848
0.307462
0.349203
4.077212
0.036200
-0.820847
-2.383850
-0.279841
3.149152
-1.206247
-1.562630
0.967679
0.812089
8.211741
0.396383
-1.182782
-8.238999
-1.249241
2.756477
-3.512216
-1.371525
4.928265
-1.311009
5.897156
-0.450811
7.827255
-1.028915
-0.888846
-9.105872
-2.611831
4.633631
10.800685
-0.980373
-7.801037
-5.236193
16.896213
5.816972
0.521362
-15.542933
-2.952875
9.018428
9.919256
3.751532
-12.693540
-10.366770
14.309685
5.855232
1.009561
-11.559371
-3.623079
9.049751
9.917835
2.153765
-10.496405
-9.945808
11.415130
0.200449
-1.526302
-10.272993
-0.624157
6.310183
7.499613
3.367952
-10.331562
-5.946549
12.772751
5.731682
-2.940216
-11.320331
-3.126189
12.033407
8.403934
-0.380089
-13.846768
-6.298362
12.106881
8.544712
3.046502
-12.316130
-1.752470
16.522730
11.020410
2.392937
-11.259345
-15.294706
5.606090
1.938450
-13.714462
-11.889442
5.901465
4.708292
11.742534
14.485036
-8.179321
3.417309
-2.471408
-11.493064
-53.200114
-7.977096
22.299788
-6.864141
10.078338
11.725351
-6.457574
31.790464
-3.235181
-17.741418
13.821797
-8.832643
9.761395
-0.352693
3.479803
-3.890891
-12.277849
17.972785
-1.754392
-16.769643
68.488299
-5.810474
-1.005399
-10.701962
1.831876
-2.248238
-20.623879
1.226267
11.072334
-11.873564
11.691337
-7.216604
-3.533396
-4.289365
-2.292567
6.410932
-5.424994
5.257645
14.234310
-12.753483
-30.229224
-5.364371
17.326460
7.662675
-4.140224
4.652665
4.208838
1.944111
9.072022
-17.687686
-14.591613
-0.522603
15.549752
14.221366
-7.231194
4.692754
6.576612
-1.668786
9.750876
-20.670560
4.000348
-0.949862
6.730900
-1.277300
-0.962782
7.417363
-1.375312
-2.960501
12.981735
-19.900502
-0.202047
0.108434
-0.247472
-8.219967
0.309695
9.499052
3.509201
-1.539228
14.571452
-9.849329
0.118005
-3.009251
-0.385137
-4.760771
-4.537109
6.867392
2.742103
1.886642
8.895141
13.762489
3.072827
-12.264503
-4.334867
-2.057735
-13.034264
14.588378
-0.868645
-2.678663
7.359284
31.704349
4.799558
-19.848561
-5.945797
2.110231
-19.264732
18.246600
-1.954003
-6.252559
4.418683
32.564466
4.423681
-18.925221
0.653645
4.231027
-20.882422
19.483976
-4.134786
-6.670233
0.052230
10.191712
0.009756
-5.974745
7.056555
0.287449
-8.458056
11.826164
0.765401
-3.662414
-2.489546
-1.474888
-1.498848
4.498674
2.126348
-1.732652
0.466926
1.867707
0.861111
0.794532
-0.674222
0.237706
-0.154358
3.585158
0.695997
0.205679
0.821529
-0.931160
0.940470
1.030728
0.323822
0.933176
0.249282
1.636003
0.660847
0.504103
0.078270
0.449654
0.049411
0.122165
0.567658
0.940875
0.704429
0.606405
-0.005592
0.279105
0.865691
0.193300
0.484702
0.251020
0.953033
0.914512
0.450929
0.338728
0.799500
0.029600
0.007452
0.143496
1.174106
0.420235
0.411437
0.517193
0.084139
1.057426
0.252742
-0.273838
-0.196344
0.591731
2.083605
1.022858
-0.651670
-1.884437
-0.022917
1.111557
-0.006451
0.102481
1.495439
0.370827
3.949848
-0.016968
0.568875
-6.028844
-0.934664
0.944593
-0.871428
6.825254
3.828976
-3.226123
0.208424
-2.271497
7.354731
6.017977
0.042717
-10.422011
1.477785
18.663616
1.714952
-2.929045
-11.627208
-7.497522
9.097732
9.542221
0.630000
-11.448591
0.882765
26.522763
-2.920880
0.558163
-12.832656
-12.695532
4.988221
9.155916
-0.243390
-9.948803
0.706135
21.522440
-3.984106
3.304287
-11.058028
-10.521835
2.878468
6.757847
-1.943086
-8.677871
2.380413
15.798751
-2.202796
1.461403
-11.671578
-9.095913
7.137287
13.413845
-1.508999
-6.425972
0.199515
12.191263
2.540381
1.815139
-17.353841
-15.253882
12.173716
16.094082
3.159349
-0.574023
-4.253382
9.540623
5.162161
6.694261
-16.670985
-20.448256
10.077089
-0.445319
-24.101684
6.805239
2.274533
1.054275
2.618817
16.705628
-13.876663
4.926447
6.296470
-15.275551
-44.451212
4.977013
12.777246
0.553404
2.635825
0.189479
-7.678813
22.253015
7.603512
-9.185292
38.020765
-1.283767
-7.611870
-1.112830
-4.802335
-11.359574
-19.123214
14.408479
10.615915
-10.963592
50.542079
-4.406821
-7.066334
-10.669732
-4.663446
2.321753
-20.866170
10.414690
16.459128
-4.133857
9.788519
-9.372621
-1.331536
-4.001839
0.133361
6.255023
-2.733983
0.550138
5.662623
-12.679562
-36.778955
-2.196250
20.545070
4.932213
-3.490327
8.848759
7.097280
0.257248
7.904931
-16.674230
-8.011873
-0.797891
20.872848
12.880950
-11.373037
5.487050
3.927266
-6.934049
13.220425
-17.494353
4.806713
0.185200
13.295196
3.326170
-3.051551
4.993429
2.377071
-10.370358
7.139145
-15.161510
-1.116909
-2.745559
6.463555
9.147320
-4.284944
5.783365
7.578315
-4.777869
0.886019
-0.141157
-0.593003
-6.935278
2.523291
11.390969
-6.980126
4.884935
4.254125
-3.377190
-2.797948
16.396370
0.955794
-15.120037
0.770567
7.787541
-10.007028
12.452298
2.085400
-5.231597
-5.602627
20.242726
1.293661
-19.744178
0.152100
8.026142
-10.748049
19.940783
4.103856
-10.031210
-6.816107
20.930567
1.973059
-20.251690
4.070454
7.756129
-9.676002
19.611453
-1.200265
-8.367791
-7.530056
7.309610
0.363342
-8.765282
8.330602
-0.335027
-2.321761
12.928417
0.199495
-3.887064
-4.871247
-2.959821
-1.731449
5.210832
1.882872
-2.161566
0.805653
2.673695
2.182257
0.186121
-0.602131
0.422275
0.411253
4.555833
0.153886
0.232683
0.029873
-1.258454
0.783657
-0.236684
0.870867
0.944389
0.754233
1.072570
0.305825
0.873085
0.054216
0.222540
0.183542
0.701435
0.390011
0.567795
0.658363
0.411225
0.004099
0.503318
0.995383
0.614224
0.515319
0.829645
0.848226
0.463891
0.030686
0.073042
0.865900
0.881253
0.076923
0.457602
-0.032160
0.622413
0.980079
0.861285
0.117845
0.274898
1.397723
0.787128
0.170318
0.569164
1.072615
0.834738
0.254909
-3.148726
-0.282637
1.631719
1.537573
1.665605
1.518016
0.373824
2.538421
0.718008
0.147993
-3.157161
-0.617533
0.683490
2.086556
9.730014
0.923969
-4.838691
-3.275414
-0.121413
2.945285
11.482387
-0.094245
-3.903120
5.261657
25.606564
-10.387110
-5.945318
-10.653082
-5.430831
0.376131
8.293395
0.713705
-5.270384
2.365019
29.712922
-14.878014
-1.493007
-5.885891
-6.448438
-4.989447
8.277386
-0.554589
-4.367170
0.100091
23.192185
-12.119532
0.762049
-7.100395
-4.753520
-3.668270
11.297478
-1.843883
-2.090527
0.512823
18.786075
-5.486722
-1.475948
-12.730582
-7.468817
2.385281
16.246405
-0.575770
-0.366037
-3.809018
8.533813
-2.459076
3.440826
-15.265276
-11.274435
9.697896
14.359547
-1.391365
4.787198
-6.988978
5.480349
-2.099829
9.503566
-15.010111
-14.619763
12.301060
-2.840513
-24.806277
9.246265
-2.163791
10.941149
-2.533667
9.436225
-11.371525
4.244603
8.153272
-13.878242
-23.914610
6.391616
4.083959
12.075947
-3.236612
-8.736176
-9.391609
15.767303
8.147932
-11.265343
37.452912
4.075000
-6.082764
4.919723
-7.868843
-8.880818
-23.633662
17.999726
3.427947
-11.439494
40.194494
-6.912758
-1.559334
5.346920
-9.378503
9.138211
-13.720328
11.262813
-3.966785
-8.942401
0.403813
-9.122376
2.859453
4.802919
-4.213408
9.541694
0.512600
4.404990
-3.428755
-18.379706
-33.335690
2.467302
13.567732
12.877468
-6.225168
7.294466
6.683947
-1.696112
12.685096
-16.998818
0.575712
3.073986
13.092003
14.840526
-6.509968
1.115807
6.221968
-16.085838
12.833079
-13.451471
2.702317
0.521735
11.405651
12.082452
0.561584
-2.898726
5.650991
-10.676987
-4.755756
-4.314371
-2.964069
-3.341756
10.034409
16.323001
-4.438861
-3.935625
8.380929
-5.459113
-9.436663
8.602793
-0.068328
-13.124979
7.502228
10.377663
-9.846654
5.566514
5.608555
-3.822889
-9.046153
8.444119
-0.117080
-14.041483
5.691101
6.662593
-8.421077
14.434653
7.222862
-4.772914
-11.376202
6.574126
-0.605270
-17.674024
6.832331
7.252856
-3.359446
16.543937
5.120465
-6.082976
-10.996158
10.210304
0.038982
-18.024833
7.941963
6.715684
-2.307362
16.038590
-0.846704
-5.026531
-10.194219
3.020550
-1.793436
-5.142281
7.295458
-1.858693
1.429990
9.929152
-0.017558
-2.310097
-5.601635
-3.488941
-2.886040
9.484611
0.813076
-2.587513
0.070578
2.442990
1.425457
-0.099213
-1.422619
-0.145969
-0.299292
5.359674
-0.455802
0.790211
0.261568
-1.655191
0.935887
0.427015
0.470224
0.463436
0.820511
1.044791
0.089457
0.339103
0.239653
0.239278
0.268910
0.129583
0.041649
0.810531
0.526113
0.790616
0.515908
0.184267
0.893779
0.067463
0.764940
0.474109
0.654694
0.530151
0.467899
0.936600
0.853947
0.313600
0.307194
0.500864
0.692777
0.136982
0.704063
0.479406
-0.378788
0.012810
2.551425
0.792476
0.348521
0.498759
0.488418
-0.029258
-0.012361
-4.563582
-1.167235
1.983537
5.609151
0.284482
2.367064
-0.207268
2.308516
0.061353
0.429130
-1.853562
-2.761935
4.069356
4.471988
4.850338
1.253235
-4.361885
-2.832779
0.544834
-0.865317
12.625647
-0.601328
3.040578
2.176808
16.989301
-11.547863
-7.643051
-6.410635
-0.512329
-4.063096
9.780522
0.055751
5.514030
-3.624015
19.429638
-14.359655
-3.874025
-0.916668
-0.572670
-8.329222
5.516629
-1.353839
0.787544
-0.647044
14.645133
-11.762878
0.934029
-1.150617
-1.675164
-4.885237
7.682510
-2.231782
0.629767
0.598855
13.977612
-7.007572
-2.719872
-6.106157
-4.824197
2.079664
8.482393
-1.952643
4.878594
-2.683563
6.186972
-2.365097
6.477893
-10.636382
-9.161004
4.424027
8.090977
-3.702731
5.125838
-9.404130
7.157299
-6.183812
12.406854
-12.790070
-4.209325
8.688068
-4.975622
-18.476468
8.327341
-8.029122
12.738707
-5.249117
8.174299
-9.045356
9.731428
7.904242
-15.864301
-11.388054
9.886969
-1.833498
16.365345
-0.477400
-13.309650
-12.240932
18.803473
5.897901
-15.174600
32.614783
4.635729
-2.768393
13.255082
-0.984136
-6.486961
-19.857810
12.731504
-6.682125
-13.940135
33.625713
-5.208079
-1.457838
17.973675
-3.515764
7.615763
-6.381053
5.205877
-16.202569
-14.978242
-9.454971
3.802767
-3.882935
19.533175
-3.902432
2.386622
2.991002
8.598590
-4.398620
-18.078957
-20.554328
12.107398
1.003196
19.285879
-6.854589
-3.735062
5.311232
-0.166942
13.893880
-13.329941
-0.076298
8.218761
7.037746
15.242331
-0.499993
-8.061045
3.138392
-13.247597
3.930541
-3.534450
-2.873902
0.398863
13.796610
15.646957
4.227522
-5.219050
1.486306
-15.056401
-10.166855
5.814059
-3.417672
-5.491903
13.193643
5.874672
-1.381636
3.424889
4.428101
-10.246097
-11.888171
5.578453
-1.279795
-9.441294
10.082205
1.467673
-6.002639
10.093782
1.987009
-5.364229
-7.255646
0.751314
0.243608
-7.614189
9.535954
1.027235
-5.083054
11.174983
4.491314
-3.917579
-10.714532
-0.284216
0.686326
-13.456444
9.336628
1.075048
0.858999
13.532326
2.361955
-4.905403
-8.316528
3.885604
-0.806251
-9.531638
8.135206
-0.937579
2.559226
10.161170
-1.607534
-1.653875
-8.074687
0.199453
-4.167766
6.327392
4.332604
-3.294873
3.194777
4.930767
-0.508104
-1.721727
-5.204625
-1.922911
-4.381958
17.767805
-1.282568
-1.474383
-0.902296
-2.393595
0.661616
-0.882198
-0.220497
0.463060
-0.138159
7.764506
-0.203083
1.269296
-0.027661
-1.672524
0.653833
0.178178
0.523809
0.666678
0.821022
1.323413
0.406858
0.266671
0.017117
0.554773
1.022772
0.733792
0.165806
0.495193
0.899442
0.838618
0.597949
0.991302
0.091708
0.565691
0.467940
0.338908
0.841914
0.952407
0.518293
0.860727
0.132023
0.466900
0.237492
0.157739
0.536275
0.405988
0.374262
0.169181
-0.000685
-0.583490
2.921043
0.908159
-0.131697
1.177137
0.479482
0.221898
0.421668
-6.095196
-2.770877
3.181664
10.455685
-1.981343
2.473550
0.091997
1.055881
-0.873386
-0.379904
-1.476791
-4.887804
8.354356
7.654374
-3.528251
4.282543
-3.944052
-1.072986
2.969567
-4.395837
13.161497
-1.467552
12.425933
-3.626590
3.139781
-5.683781
-8.183201
-2.000921
2.800092
-4.985873
11.606585
-0.148745
11.980964
-9.942027
5.040522
-0.171421
-6.131920
-3.369751
-1.373267
-3.582138
7.326158
0.514710
6.018841
-6.357866
7.295057
-4.608994
-0.655177
-4.436041
-2.100761
-2.271500
3.864257
-2.400128
2.687721
-2.820500
6.740270
-4.419913
3.015983
-4.038480
-0.715856
-0.995361
3.180209
-4.975644
-0.505269
-7.295883
5.216137
-3.741006
10.166403
-2.427530
3.947685
-1.807330
3.273127
-1.134496
-6.932155
-12.214404
3.248704
-10.153964
20.938538
-4.662111
9.318341
2.185022
-4.369430
-8.233541
-0.988005
-12.698529
7.716845
-10.986010
13.304284
-5.459863
19.626415
6.005840
-10.962118
3.169380
4.533110
-8.120923
12.938374
-7.839245
-8.199799
-13.780253
20.010044
4.772143
-14.536504
30.582845
6.705578
-5.990243
17.266079
-4.310747
-8.088485
-10.126670
2.886426
-4.857203
-17.606182
20.631010
10.358474
-6.836831
20.647997
-5.317341
-3.457476
-1.817354
5.201364
-10.038917
-14.036215
-10.029363
19.829283
-6.676327
14.239446
-4.533875
-7.245569
2.770326
6.425540
4.555208
-7.612526
-8.141651
12.536218
-0.524308
5.669053
1.991062
-8.043930
1.200227
2.107318
4.619445
-1.076111
-3.614841
7.007918
6.950351
-1.165748
6.780918
-3.850819
-0.547613
-6.224064
-3.332443
3.519271
-6.553942
0.471285
10.343894
-2.339673
6.122202
7.137042
-0.035206
-10.747239
-8.760448
5.911646
-2.549140
-4.020683
15.849840
-10.399262
1.801202
14.908076
-1.694245
-10.454796
-6.841666
-0.632128
-1.227979
-0.826905
8.861069
-8.960095
0.290170
15.381654
-1.639172
-4.826791
-4.045347
-2.898087
0.224154
-2.624209
10.605125
-6.049236
1.025168
9.563611
-0.073738
-4.454365
-6.984104
0.116911
-0.057257
-3.480686
11.574977
-5.829349
0.906335
8.281443
-1.358266
-3.378042
-5.873519
-0.728946
-2.813670
4.543877
6.212919
-4.542942
3.238811
4.342453
-1.307620
-2.457276
-5.469637
-0.490492
-6.053782
23.670460
-2.985420
-2.559856
2.848150
-5.760369
1.332738
-1.962416
-3.137185
-0.244091
-4.725860
23.925071
-4.029839
0.993114
-2.292467
-6.319647
1.566554
-2.567509
0.198499
0.551480
-0.526047
6.787797
-0.985536
1.434922
-0.287597
-2.779542
0.790776
-0.555296
0.032879
0.413656
0.763429
0.842901
0.069484
0.807823
0.214471
0.731141
0.833842
0.166792
0.921964
0.834431
0.779216
0.549411
0.312085
0.590254
0.495538
0.911368
0.259710
0.947729
0.421584
0.178783
0.543723
0.805409
0.080146
0.425061
0.470831
0.222350
0.483897
0.979819
0.267785
0.083410
-0.719341
-1.386665
4.344305
0.790165
-0.143786
0.694128
0.495144
0.000739
-0.037493
-8.595805
-2.964759
2.582527
15.527689
-2.762208
3.723095
1.300571
1.479491
-2.554709
-1.447537
-3.861516
-6.871168
10.774921
11.262223
-7.635812
6.515956
-1.559122
-1.843072
0.145282
-5.127556
9.738799
-4.452445
17.064807
-3.270691
-5.486184
0.767621
-6.771547
-3.151038
3.206076
-4.055905
9.348208
-4.091061
15.482267
-9.738213
-4.190856
14.186334
-7.469103
-6.498786
-1.102065
0.439701
11.114682
-2.499964
11.388896
-9.968259
-0.663104
3.512082
-0.460221
-6.007607
-1.161535
-2.076481
8.436096
-2.944087
3.326776
-8.503098
0.924304
-4.933095
5.607185
-3.511666
7.092079
-7.473668
2.499374
-5.902238
-0.642261
-12.395005
-2.157810
-6.278622
14.435491
-0.794753
18.626490
-9.919312
-0.310407
-3.974833
-0.395632
-15.278553
-13.178042
-14.938982
30.530804
-1.580159
26.901082
-5.538325
-1.299076
1.518307
-1.823338
-14.533261
-14.598211
-17.715540
30.890748
-5.473551
25.720726
-2.020765
-5.325804
11.205905
10.323213
-13.636335
-2.551927
-7.419601
12.305886
-6.633419
7.145465
-2.677671
-7.169246
22.337563
21.533567
-12.942080
9.790534
-2.943550
-7.013145
0.219390
-9.526944
-7.266736
-9.681799
8.021093
23.323391
-10.683770
8.545444
1.118210
-9.579519
0.568989
-3.190819
-0.298258
-4.020498
-7.071335
17.449325
-3.752303
-1.256102
-0.636373
-4.934535
-0.241502
3.132613
2.583542
-1.115602
-8.613646
10.500420
6.939418
-7.623339
5.165791
3.713989
-6.773090
1.515931
-1.475317
0.867049
-8.117186
7.663281
8.257661
-11.779952
6.896216
10.829025
-2.908613
-3.703624
-6.641346
0.444369
-6.594338
5.935746
10.502373
-13.524427
2.930370
16.740280
-0.240060
-4.502070
-8.530328
-0.985566
-4.220487
5.463795
11.258901
-11.826771
-0.389970
14.609821
-1.410612
-7.002062
-4.271721
-5.558594
-0.811776
6.978825
5.813068
-7.545120
3.974978
9.207466
-0.700054
-5.210885
-3.993807
-3.371792
-1.585468
4.681773
8.743217
-6.036715
3.897624
7.254614
-2.582742
-7.141977
-4.267065
-2.640613
-2.260380
10.230096
8.379367
-5.372698
3.241595
0.421612
-4.488992
-3.905441
-2.389767
-4.652343
-5.440708
26.663659
-1.553201
-2.528771
4.014903
-3.650965
-0.822698
-3.899009
-4.596121
-0.632242
-7.676525
36.982869
-9.372041
2.774901
1.723148
-12.695548
1.254045
-4.999033
-2.453612
-1.062662
-3.967870
21.640164
-4.642680
3.648663
-2.584542
-7.033131
2.146331
-3.430756
0.285924
-0.182463
-0.523044
3.923214
-0.569514
1.768195
0.250475
-1.199649
0.948125
0.050410
0.325367
0.855580
0.590413
1.190856
0.137170
0.552024
0.488994
0.461319
0.987227
0.682338
0.051550
0.374947
0.842632
0.996614
0.055081
0.209177
0.472088
0.910408
0.221810
0.980545
0.376413
0.470126
0.475754
0.693534
0.449059
0.206314
0.414482
0.097821
0.458808
0.276426
0.120560
-0.634341
-0.181386
-2.390055
5.696285
0.989898
0.433005
0.764228
-0.273639
0.711482
-1.113805
-8.670905
-3.593961
0.999891
20.858992
-1.129289
3.172517
1.945091
-0.457564
-4.132364
-2.523515
-6.692759
-8.099901
10.515891
18.026804
-7.070215
4.827275
-0.108090
-3.877539
-2.286299
-3.474491
3.257379
-6.886769
15.396067
2.614485
-6.761114
3.980436
-2.645401
-5.260422
0.801564
-2.574406
4.649878
-6.892919
15.907923
-6.746627
-7.131680
19.426755
-3.811949
-5.134933
-3.683122
-0.208246
6.353364
-7.978678
15.228873
-7.665813
-7.166073
10.565702
-1.799060
-3.954267
0.648401
-2.698769
7.391330
-8.602032
9.032037
-7.502592
-7.243247
5.177035
1.040109
-3.217318
11.889032
-8.269652
6.920192
-6.431890
9.731047
-8.441978
-12.900388
-0.038277
6.239786
-2.243961
21.491368
-15.054971
3.803100
-2.906688
7.299811
-9.680444
-21.059401
-3.909908
26.738986
-3.721593
23.363720
-15.871411
4.500564
4.510696
5.474489
-12.994453
-24.512421
-5.088647
39.999982
-4.917393
10.999560
-12.740119
4.454626
7.308393
7.619858
-12.325206
-14.454571
-1.831176
29.852475
1.771192
-4.173347
-12.286605
5.153252
15.976545
12.255509
-12.858662
2.979806
0.356111
7.546740
1.786059
-16.394362
-8.869638
2.581481
3.948024
10.920883
-8.500438
4.808250
1.045692
0.622470
0.651311
-7.774635
-2.082167
0.098033
-5.520962
7.249184
-1.186227
-0.456187
2.528551
4.878886
-6.728885
2.517311
-1.982539
-2.150146
-9.951812
4.699241
6.754035
-1.418020
1.202118
9.578535
-8.916890
4.341743
-3.959913
-1.558762
-9.413770
7.693494
9.273021
-0.693378
0.919972
10.226616
-4.695191
-0.979735
-7.434262
-1.876772
-4.450711
12.529359
7.238704
-1.691002
-0.371476
6.017526
-4.474835
-3.118350
-6.716286
-3.835172
-2.654465
10.580757
6.410761
-1.343571
1.262687
3.765468
-2.706851
-7.972961
-3.373383
-2.793014
-1.829901
8.610068
4.122947
-1.153090
6.710254
2.350070
-2.017769
-9.166935
-3.477579
-1.446960
-0.515896
10.335465
4.744575
-0.432642
4.182022
-0.738097
-5.381806
-9.506161
-1.916024
-3.965267
-2.180295
23.061100
-1.447908
-3.821737
3.448007
-6.965165
-3.655034
-2.666744
-0.505044
-4.249876
-4.558667
38.809190
-10.016423
0.741277
3.619971
-11.900638
-1.543294
-3.167609
-3.891706
-0.640710
-5.360784
36.685920
-10.555679
4.879384
0.537294
-11.740630
0.514878
-5.262940
-1.677934
0.283371
-1.811942
17.771861
-3.908738
3.415254
-1.933459
-5.575001
1.021350
-3.005483
0.084660
-0.161637
0.270370
3.484686
-0.137701
0.970768
0.190921
-1.219460
1.159752
0.087523
0.753205
0.324008
0.210193
0.951033
0.150642
0.533938
0.176468
0.414691
0.554862
0.215049
0.204816
0.516434
0.786035
0.331645
0.648824
0.283761
0.773431
0.159734
0.819147
0.733024
0.773705
0.523501
0.148088
0.436559
0.853178
0.536232
0.192303
0.161343
0.754995
0.555575
0.566800
-0.394625
-1.303808
-1.609256
6.159447
0.812240
0.170526
1.608556
-0.334697
-0.064677
-0.910596
-7.587291
-3.924322
1.577806
22.440294
-0.961093
2.714000
1.758484
-1.797116
-5.917343
-3.939144
-7.671007
-8.143345
11.175787
23.063749
-5.803054
2.288690
0.744481
-4.820548
-6.188572
-2.721770
-0.760133
-9.582040
13.556702
9.026692
-6.777490
2.136623
-1.214713
-6.088025
0.420225
-1.005084
0.751689
-8.009902
16.063919
-1.851860
-6.294911
13.887637
-3.197468
-7.382441
-2.239877
-1.006713
-0.767809
-8.732859
13.437886
-4.556633
-7.331429
13.193036
-1.763052
-5.467268
5.652474
-3.509334
1.241211
-7.083116
10.971012
-3.034365
-8.191997
13.668157
-4.073812
-5.558776
8.327985
-6.648683
5.389225
-1.783537
12.065155
-3.945829
-9.453364
12.472801
-6.849531
-7.040092
9.863344
-9.240187
6.437531
2.449254
5.666247
-6.692534
-12.172782
9.251079
3.661763
-5.500462
9.426613
-11.357233
6.924905
5.198745
-0.017133
-6.268750
-12.834974
8.016949
17.387872
-3.356652
-1.266796
-11.560980
8.117442
2.538294
-7.871796
-7.261402
-7.980329
1.235051
26.810562
3.558826
-3.665611
-13.300614
5.690748
8.773370
-10.908973
-6.544256
-1.468134
0.926763
23.959759
3.438123
-11.153185
-5.056195
2.778035
7.289968
-8.032311
-1.513425
1.614415
-5.314820
20.428508
0.293862
-7.483073
-3.678395
0.224039
-1.428052
-3.749508
0.355119
3.194754
-2.582372
16.058221
-7.952388
0.175057
-2.884460
-2.233056
-4.774502
1.904056
3.846154
7.619396
-0.251653
10.271549
-8.434906
-2.395064
-4.504779
-1.923236
-3.944666
6.097969
5.380972
7.399727
3.966276
2.981904
-6.281751
-4.821174
-4.282082
-4.566686
-4.292892
11.569798
6.588641
1.900628
2.553812
2.713263
-5.995039
-5.515991
-4.088316
-2.036891
-3.886365
13.496228
3.374692
-0.707569
4.530559
-0.033940
-3.541812
-9.546856
-1.428848
-1.806289
-2.857411
14.342132
3.791316
0.399563
4.665582
-3.518544
-4.537828
-11.237738
0.109998
-0.176113
-2.530110
20.379285
-2.055629
0.003454
3.316954
-7.128508
-6.279760
-7.091859
-0.089371
-3.024616
-3.008553
32.315869
-10.793067
-1.059838
6.162397
-10.561839
-3.085575
-2.424366
-1.208349
-3.678013
-2.996391
40.646484
-13.806445
1.546492
4.167850
-11.207401
-2.105906
-4.508035
-2.791476
0.122878
-3.396732
31.161852
-9.133138
3.725710
-0.442498
-8.366522
0.545713
-6.090148
-0.575565
1.493751
-1.301490
10.808639
-1.690139
2.594660
-1.436890
-3.541871
1.121294
-2.460716
-0.220204
1.005511
-0.212755
2.580881
0.323110
0.424451
0.453568
-0.364465
0.253161
-0.381969
0.163900
0.067122
0.417527
0.212757
0.073310
0.035046
0.678622
0.157474
0.728336
0.871472
0.870470
0.694495
0.869818
0.186778
0.052956
0.369231
0.805204
0.537067
0.225163
0.100237
0.273776
0.836534
0.551148
0.398196
0.969750
0.969185
0.747723
0.491636
0.382601
0.863533
0.035860
-0.490323
-0.352671
-0.057528
5.297417
0.705711
-0.074761
0.910538
-0.300706
0.637036
0.121485
-4.738714
-2.892777
2.005770
17.360031
0.453952
1.751411
1.303591
-4.015095
-4.607373
-3.135333
-5.224655
-6.438048
9.343005
22.134670
-2.087388
1.764467
0.218525
-7.200998
-8.208949
-1.328844
-1.541430
-6.265005
12.649350
11.707848
-5.886482
-2.011146
-1.265289
-7.401687
-1.050089
-0.497014
-0.891255
-6.648618
13.889522
2.940645
-4.524542
2.968687
-3.433619
-9.130191
5.683887
-0.846895
-1.165681
-5.874516
13.286855
-2.526003
-6.853013
9.354782
-3.006204
-9.791694
7.526029
-1.620776
0.299963
-2.181816
9.980232
-0.394957
-7.509711
13.099008
-3.642074
-9.533659
3.556671
-3.267400
6.132814
2.366118
7.497217
-4.647323
-4.144486
11.499326
-8.263276
-8.707635
2.791486
-3.702535
6.818908
4.329774
0.906605
-5.154693
-3.222882
7.315329
-5.767211
-4.407189
2.700863
-4.428094
5.866613
-0.249703
-3.058856
-7.861837
0.388522
5.326855
4.282101
2.798727
-0.502516
-7.256400
1.641114
-4.287123
-11.282078
-3.337314
-0.098484
1.365022
19.459096
5.055236
-1.403821
-8.651565
-0.280558
3.091478
-15.906685
0.820442
-0.873725
-2.073295
27.103459
2.911524
-4.518526
-7.259563
0.900129
10.121336
-15.875964
0.845922
-1.019765
-3.267096
25.964458
-0.981852
-6.294034
-6.814211
3.592357
5.236945
-11.188524
4.431956
5.235701
-3.731743
17.632398
-4.727481
-5.934523
-6.132247
0.430910
-0.487574
-3.568152
6.101556
3.195440
0.136415
10.274682
-3.728356
-6.199568
-1.905993
-3.221186
-4.898963
2.122917
4.465169
4.740899
3.924860
7.850225
-6.386179
-7.810398
-1.525891
-3.474361
-7.804927
8.776510
5.757785
1.488813
2.498601
3.688706
-7.455285
-5.278653
-1.048613
-2.259189
-7.136235
13.140523
3.652242
-0.026353
3.745974
0.806345
-6.111013
-7.933872
-1.283867
-3.633897
-4.452988
16.730895
0.630107
-2.360172
7.109982
-1.928900
-7.400080
-8.737623
-0.321167
-3.407168
-3.323775
26.934011
-8.307515
-1.977320
10.073901
-5.744266
-6.323842
-7.071400
-2.609428
-3.267080
-3.647984
34.386098
-14.500291
-0.867144
7.527184
-8.050010
-4.338329
-3.146636
-1.584743
-2.174929
-2.551268
31.601680
-12.438857
1.394512
2.669512
-6.398310
-2.325835
-5.519447
-0.249784
0.904336
-2.212601
19.682226
-5.948271
2.466820
-0.215092
-3.218909
0.160388
-4.744721
0.954216
1.361864
-0.463403
6.483730
-0.209694
1.118750
-0.571940
-1.019765
0.370467
-1.568068
-0.051554
0.946285
0.348769
1.379055
0.255283
0.400907
0.500443
-0.041263
0.768802
0.041618
0.050584
0.611175
0.351345
0.864538
0.471301
0.417523
0.827128
0.730612
0.644155
0.256007
0.065197
0.167232
0.467485
0.887536
0.839411
0.232544
0.888480
0.248897
0.262738
0.292341
0.311425
0.350941
0.225650
0.225351
0.891198
0.894243
0.835266
0.847292
0.437741
0.999999
0.134399
-0.369297
-0.110616
-0.006741
3.344799
1.002535
-0.223408
0.811278
-0.344222
0.167560
-0.389614
-2.671537
-1.903052
1.271382
12.224122
0.896119
-0.240055
1.733139
-3.383667
-2.304828
-1.273017
-5.597809
-4.593442
6.159903
19.373089
-0.551482
1.894219
1.709240
-6.930068
-7.797159
-1.107130
-1.529178
-0.374845
9.290496
13.558628
-4.233532
-1.669796
1.121234
-7.649870
-4.482242
-1.789404
2.478783
-0.693288
11.081229
7.334696
-5.619528
-5.791841
-0.563262
-10.244896
5.809887
-2.537495
2.911103
-0.745791
13.285965
2.242007
-4.757468
-2.209233
-1.390219
-11.681766
5.548950
-3.688800
2.939674
-0.378150
10.448265
0.472074
-5.646205
4.063654
0.989809
-9.346399
0.384954
-3.452634
6.660653
1.512840
4.129704
2.802178
-5.012273
8.783435
0.223811
-7.538725
-3.747372
-4.913891
8.438215
-0.184826
-1.002119
3.995603
-2.423031
7.452005
-6.880883
-3.681512
3.784312
-5.458262
11.139221
-6.665697
-2.143514
3.478319
-0.073115
7.561662
-16.383549
-1.835813
12.988172
-6.001989
12.131101
-10.426268
-3.809140
3.400239
0.597562
4.801890
-13.263464
-2.613783
15.667803
-6.497326
12.629630
-4.895452
-6.613577
2.836658
3.245523
3.972524
-10.355378
-2.808951
10.540815
-8.429595
9.205080
5.973964
-8.984225
1.995885
4.076951
1.382921
-6.224495
-1.453852
4.275042
-7.805429
5.456841
8.420010
-8.837799
4.064563
9.804385
2.639517
-2.772870
-1.977429
-3.340039
-10.581725
2.513372
4.775632
-7.590579
3.247158
6.868669
6.578962
0.820182
-6.428280
-5.839056
-4.242468
0.370916
2.071830
-5.855591
5.052111
6.106969
4.543735
3.631469
-8.480758
-4.372411
-3.870956
-3.509748
-2.627334
1.016799
3.486073
3.567304
8.796475
3.295271
-8.413133
-1.629322
-6.068923
-2.994909
-2.197585
5.757779
1.475132
3.813206
9.274563
1.839960
-9.425874
-3.646221
-6.474721
-5.455193
-3.259196
15.644407
-2.431586
-0.519838
10.442002
0.771664
-9.187854
-1.680544
-4.654232
-4.048770
-3.745540
23.133745
-9.078604
-0.407246
8.886769
-2.684071
-8.657368
-0.423202
-1.504061
-2.019422
-3.111795
23.343705
-10.330420
-1.177193
5.387938
-3.171613
-4.409862
-1.009674
0.050878
0.325915
-0.313145
16.889599
-5.984199
0.212087
2.823691
-2.303302
-2.884085
-2.587260
1.576704
1.099762
0.551293
8.386389
-2.917376
0.860279
0.490203
-0.867200
-0.552424
-2.747531
0.670647
0.086518
0.399958
2.588421
-0.209754
0.169620
0.952212
0.154539
-0.282280
-0.653042
-0.050696
1.043898
0.847033
0.066215
0.108209
0.836802
0.402367
0.290590
0.526091
0.139290
0.112154
0.575127
0.476993
0.237355
0.067997
0.747035
0.559388
0.024810
0.348214
0.043273
0.761128
0.434614
0.873165
0.174322
0.921934
0.721305
0.709952
0.544145
0.259835
0.101810
0.176489
0.947050
0.762597
0.101901
0.723441
0.447707
0.486465
0.301157
0.866451
0.235847
0.152135
-0.063275
0.455660
0.390494
2.189253
0.173510
0.751146
0.316365
0.416233
0.788484
0.335788
-0.772587
-0.712597
0.974732
7.255083
-0.184774
0.554450
1.426948
-1.794891
-0.075918
0.017342
-3.354848
-2.337921
0.440299
16.109825
-1.580149
1.865281
3.747200
-2.060672
-5.655348
-2.830430
-3.682520
1.224459
0.717466
19.351454
-4.964671
1.791099
7.089769
-3.369460
-9.692830
-3.685540
-2.294878
3.431307
-1.057075
20.528173
-7.989543
-0.287705
10.768695
-5.391765
-6.350356
-6.330787
-0.023629
3.324390
-3.370927
17.712231
-8.022138
-2.029963
13.654299
-4.281811
-4.696840
-8.766681
0.189533
5.555414
-8.148767
10.770164
-7.441269
0.424464
14.249986
-5.660461
-2.254748
-6.837821
3.031922
7.457303
-13.058734
11.128433
-6.282268
0.642890
15.304898
-3.768612
-2.475333
-10.307987
4.967773
3.369312
-16.096120
12.920696
-6.638225
1.325913
13.858012
-0.774981
1.030226
-10.325947
8.516059
-0.736551
-16.685585
13.215631
-5.061669
1.972133
6.073448
-2.649250
11.994068
-11.358212
10.261687
-1.761255
-16.058343
11.822891
-5.361367
1.050666
-0.145848
-5.353276
22.942790
-11.999635
7.412006
-0.715307
-16.858102
9.449272
-5.813678
2.699815
-2.760007
-5.630886
29.496512
-12.859212
7.359784
8.392289
-16.979594
1.415761
-0.676686
4.584692
-3.473651
-2.990947
23.558229
-14.661391
7.838742
13.724401
-16.148682
-1.098395
4.443270
0.268196
-0.917501
-3.961646
17.944159
-19.787430
6.685605
15.390067
-15.771912
-3.275132
3.461137
-0.243613
1.734015
-5.452712
13.094759
-13.924876
4.047279
10.130101
-15.029767
-0.904249
7.161347
-0.817750
3.106395
-4.376555
11.312633
-10.998904
0.070493
4.157262
-10.579095
3.377144
8.633050
0.509610
3.839949
-8.513128
11.369240
-7.267343
-1.033919
1.990252
-6.023547
-1.472427
8.301931
3.401660
3.197621
-10.111570
10.901580
-2.203157
-2.977808
0.228793
0.226178
-6.860184
6.133319
6.107721
1.077981
-10.610238
9.518610
3.228884
-2.919606
-0.404399
6.150578
-5.913829
1.344329
3.753363
0.333053
-8.932763
6.615299
5.157020
-0.936420
-0.274397
6.618725
-3.686830
-0.759503
2.606585
0.144804
-5.184625
2.005991
5.663027
0.007597
-0.068978
4.846415
-1.153099
-0.256831
2.132004
-1.418939
-2.972112
1.010943
4.078032
0.817562
0.308832
2.369420
0.347475
0.453018
1.279533
-0.277924
-0.051893
-0.361827
1.672365
0.780830
0.675225
1.028422
0.264865
0.880156
0.899437
-0.100880
0.389734
0.547215
0.648778
0.507116
1.045143
0.111630
0.752047
0.680534
0.725676
0.170547
0.135331
0.121745
0.882355
0.141545
0.114048
0.416120
0.153508
0.603717
0.986206
0.979034
0.061678
0.684378
0.541765
0.280892
0.166204
0.592425
0.396863
0.245521
0.879696
0.037965
0.077792
0.823817
0.260292
0.614399
0.000275
0.681051
0.074129
0.236854
0.278726
0.394604
0.327952
0.168828
0.771599
0.808480
0.824050
0.670745
0.669569
0.716389
0.606974
0.786128
0.125457
0.220324
0.895495
0.032984
0.288107
-0.077859
3.573295
0.223134
0.950080
0.472967
-0.017274
0.149487
0.103770
-0.842137
-0.998504
-1.086821
8.300165
-0.638895
0.582439
2.208917
2.689407
-2.078223
-0.643861
-1.944027
-0.813818
-2.494545
13.202158
-2.196624
1.005175
4.593064
6.190444
-7.269350
-1.427985
-3.920717
-2.507182
-4.973515
18.205181
-3.213584
1.236134
7.587914
9.338588
-9.278695
-4.505882
-7.601863
-7.433195
-6.249040
20.140821
-4.829250
3.809075
9.991413
14.071704
-8.361452
-5.016391
-9.724299
-12.670074
-3.066570
19.496345
-6.040557
2.414035
9.782600
13.703181
-2.969612
-6.416672
-12.239950
-12.591207
0.204037
16.185526
-7.374750
4.471312
10.014303
10.941602
2.224231
-6.738254
-12.522375
-12.544892
3.749549
14.488643
-8.845551
-0.321186
12.188376
10.149282
5.263397
-5.317609
-13.440557
-10.543185
7.447078
14.297445
-8.121618
-1.724392
12.994846
5.608149
4.437266
-5.812814
-10.830817
-10.401228
9.302376
9.644249
-12.051223
-0.413699
12.683598
3.831448
4.551365
-3.886445
-11.577543
-12.388937
8.531693
10.203689
-12.300092
-0.519638
13.947679
4.148381
6.933046
-4.240776
-9.200989
-9.398643
8.615808
7.341478
-6.444151
-0.248811
10.205657
2.308331
9.530134
-9.134056
-3.511702
-5.713582
4.701771
3.688973
-4.424797
-2.885678
6.962397
2.339526
10.781950
-7.139981
0.679457
-2.980782
0.012604
0.704849
-6.065529
-5.768612
4.604425
0.843929
11.770328
4.639872
3.121951
2.137473
-4.272821
-4.167617
-6.238346
-4.540653
2.160218
0.586022
7.697963
15.577041
4.166925
4.908348
-7.390103
-8.037636
-4.369451
-3.112187
-0.666229
-4.564158
10.078832
22.026005
3.161049
2.516533
-11.336289
-7.499350
-0.812510
-2.145656
-1.090768
-7.306761
12.100356
23.549857
0.427504
0.956059
-9.419831
-4.822579
-1.343620
0.325063
-1.337681
-8.115332
10.213991
23.282995
-0.773615
0.753482
-5.356799
-1.348250
-2.276958
1.732365
0.033669
-5.861049
4.870848
17.418644
-0.761660
0.694271
-1.584056
0.543286
-1.282673
2.355601
-0.058794
-4.061834
2.122231
9.951721
-0.602906
0.438759
-0.981706
0.369865
-0.699419
1.647287
0.299978
-3.146409
1.421529
6.394949
0.542091
-0.093800
1.685916
1.043001
0.050403
1.045673
0.395783
0.015538
0.987077
1.644321
0.330770
0.456123
0.556380
0.165051
0.529858
0.070465
0.201279
-0.050094
0.775288
0.830864
0.842444
0.653970
0.378459
0.201088
0.821079
0.914481
0.739379
0.904961
0.222563
0.186424
0.348216
0.868648
0.978057
0.143132
0.151646
0.163091
0.872799
0.446883
0.309915
0.380383
0.443648
0.169622
0.525101
0.516099
0.897671
0.608753
0.649831
0.278603
0.811396
0.429701
0.002594
0.267464
0.220771
0.521134
0.427717
0.919156
0.408460
0.758293
0.630146
0.627064
0.157317
0.322939
0.808981
0.984569
0.829520
0.794629
0.175896
0.224736
0.846116
0.500268
0.206660
0.792172
-0.013573
0.503906
0.695614
1.181981
0.194034
1.098087
-0.054449
0.664627
0.124420
-0.114683
-0.693213
1.048451
0.349307
0.882945
0.878477
2.974807
-0.014058
0.113136
-1.256308
-2.889272
-1.208869
2.074161
0.750998
0.146450
1.551372
6.714118
-2.330163
2.381734
-4.728979
-6.724004
-2.498273
3.389046
0.398818
0.407873
3.740601
15.273114
-4.988501
2.012278
-8.499919
-12.484947
-3.081062
2.695890
-1.344355
1.889030
5.340322
27.590622
-7.797726
2.862885
-12.920038
-14.963474
-1.116951
4.426819
-7.827306
2.004942
6.796732
37.806085
-11.694390
6.525156
-14.659650
-14.708521
2.664021
2.963612
-13.134178
3.608808
5.114304
41.705444
-15.707911
13.458765
-14.521960
-10.138476
6.474390
1.544888
-20.226566
4.016684
4.450984
40.977437
-17.639285
21.028652
-14.411203
-6.576411
4.233875
1.557637
-28.235868
4.273122
5.628178
42.039539
-19.945037
23.859182
-13.627412
-5.606482
4.748119
2.685267
-33.056628
4.151149
5.139536
38.930377
-22.212833
32.905248
-12.814744
-7.313790
6.032290
2.653756
-30.715511
3.331430
3.169129
36.193898
-19.482975
33.901650
-10.496091
-7.865062
6.470417
1.359337
-27.248268
0.263233
2.385590
31.877918
-12.130320
30.998995
-6.298602
-9.931693
5.702927
-1.566109
-30.096827
-0.540145
2.597162
27.415907
-7.154540
34.883536
-4.634589
-6.728806
6.004240
-4.200182
-34.643441
-1.254641
1.845782
16.773193
-4.876564
46.418785
-3.057388
-2.533636
4.455898
-5.579870
-35.912015
-2.616850
1.543383
9.023980
-2.354519
50.901411
-0.069238
-0.422911
0.495931
-4.033578
-30.782966
-2.614319
0.142820
2.204068
-0.577462
48.606565
0.425082
-0.099230
-3.507779
-2.203333
-22.393313
-2.711956
0.484077
-2.841068
1.456132
39.894406
-0.671458
-0.546058
-4.074295
-0.118126
-14.339865
-1.079526
0.336725
-5.276220
2.447196
30.646568
-0.282651
0.392317
-3.108102
0.309840
-8.130328
1.044748
0.492088
-4.057494
1.332172
18.718467
0.152876
0.210221
-2.326565
0.755903
-3.222459
1.079334
0.459601
-1.816992
1.299712
8.305842
0.418694
0.557866
-1.119746
1.004853
-1.019440
0.843338
0.487473
-0.872734
1.034437
4.067828
-0.099114
0.587163
-0.324570
1.094289
0.083339
0.573789
0.391419
-0.024704
0.594155
1.198798
0.076952
0.365817
0.556507
0.492117
0.476806
0.417694
0.468370
0.277717
0.579796
0.434195
0.027927
0.768351
0.830592
0.854064
0.560409
0.507465
0.818531
0.261385
0.044212
0.167928
0.810236
0.035463
0.393139
0.428327
0.872585
0.767083
0.272530
0.077334
0.534684
0.541032
0.906034
0.601947
0.812830
0.770074
0.170995
0.522629
0.186834
0.390088
0.633564
0.520798
0.974456
0.862575
0.165502
0.711753
0.136906
0.882229
0.446730
0.263405
0.047761
0.196112
0.133122
0.017182
0.255684
0.440046
0.972045
0.266762
0.772576
0.399060
0.646016
0.351604
0.918329
0.591238
0.622895
0.218152
0.252335
0.623743
0.816791
0.620388
0.629490
0.153688
0.217721
-0.240545
0.745173
0.677545
0.735860
0.340075
0.398720
0.538242
0.164956
1.019147
-0.877971
-0.586582
0.280229
0.175782
0.043281
1.034073
1.195906
3.113659
0.134823
1.475651
-1.978648
-2.651916
-0.003898
0.579473
-0.664668
0.577357
2.420511
8.379665
-1.892795
1.487660
-4.697311
-3.955805
-0.890162
0.076071
-2.270867
-0.268964
3.858921
16.419970
-2.669676
0.602218
-7.286051
-4.240654
0.529673
-0.096066
-6.708494
-0.672223
5.482895
26.432110
-3.183892
-0.756924
-9.791541
-1.746539
2.398651
-1.618611
-10.776227
-1.236913
6.928201
32.955780
-3.762074
-0.771745
-9.717547
0.998904
3.596203
-3.562007
-14.150588
-0.953328
7.846207
39.430474
-4.592146
-4.066090
-10.105245
2.575387
2.598347
-5.331020
-17.143711
-0.258258
9.153616
42.554700
-3.837850
-4.584581
-10.173827
1.708079
1.960036
-5.249395
-17.235899
-1.674050
9.497015
41.168427
-4.079722
0.509329
-10.133820
0.024617
2.947363
-5.180218
-19.571499
-2.262727
8.666367
42.770409
-3.133455
2.534169
-9.813159
-0.743741
4.070644
-6.285579
-21.112213
-1.677001
7.704620
38.953060
-2.851521
6.545260
-7.852221
0.317403
4.069411
-4.337463
-18.788045
-1.192044
5.955900
33.374178
-0.795480
5.721847
-5.397368
-0.625842
4.759386
-3.296069
-19.822488
-2.496210
4.380195
24.034775
0.350239
8.656103
-2.875998
-0.143737
5.038182
-2.156166
-16.746793
-2.780813
3.316945
14.982435
0.559240
10.895350
-1.862896
-0.184262
3.195280
-1.265780
-13.010474
-2.893086
1.581004
7.874533
0.939427
13.206623
-0.354020
-0.160063
1.152911
-0.444222
-10.434798
-0.706358
1.285231
2.110977
0.967392
12.832240
0.058243
-0.750558
0.002024
1.443357
-6.567222
-0.073737
0.414343
-1.741048
1.016753
10.530762
-0.311728
-0.049430
0.526411
1.544197
-2.006985
0.790074
0.713519
0.607973
1.010303
5.677999
-0.097917
0.108486
0.552907
1.067362
-0.775017
0.667405
0.092000
1.506809
1.179023
1.839699
0.306483
-0.015099
0.916821
0.709182
0.025638
0.478449
0.655731
1.002410
0.854414
0.582582
0.799510
0.797873
0.145909
0.333721
0.733755
0.021032
0.952560
0.489951
0.483140
0.438469
0.284397
0.014606
0.140454
0.118735
0.481974
0.070249
0.335743
0.984117
0.900078
0.547539
0.836085
0.165319
0.470321
0.530045
0.367687
0.481613
0.727348
0.322703
0.753441
0.667867
0.234016
0.319468
0.074007
0.189337
0.971831
0.943663
0.456557
0.973876
0.730064
0.608875
0.814844
0.315622
0.019227
0.104526
0.318308
0.593616
0.540788
0.311228
0.870602
0.960723
0.744804
0.652547
0.379192
0.659627
0.506973
0.189337
0.097415
0.122349
0.455885
0.763115
0.819910
0.508621
0.981811
0.093997
0.212531
0.840510
0.458571
0.240669
0.059053
0.388592
0.709586
0.327280
0.704245
0.466689
0.249001
0.944578
0.475967
0.290750
0.329814
0.130833
0.345532
0.032083
0.319249
0.346915
0.753073
0.939717
0.519569
0.341476
0.435024
0.883436
0.486769
0.048730
0.830903
0.746405
0.628959
1.026551
0.538307
0.506714
0.598321
0.202281
0.249290
-0.038112
0.391646
0.305425
0.522102
0.740276
0.180074
1.271392
-0.053984
0.050808
-0.000716
0.354184
0.826792
0.691930
-0.405133
0.828093
0.258986
2.380395
0.309113
0.687245
-0.622729
0.706908
0.613457
1.172400
0.166000
0.971878
0.415551
2.437689
0.219106
-0.073745
-0.672911
-0.021620
0.921763
0.644985
-0.099739
0.744912
1.063070
2.327344
-0.349973
0.009631
-0.444004
-0.299480
0.817365
0.618284
-0.588354
0.977892
1.632288
4.432788
-0.870083
-0.825393
-1.330949
0.584825
0.865274
0.371694
-0.296952
1.268359
1.581877
5.125242
-0.694584
-0.780486
-1.762363
-0.105348
1.874290
0.977959
-0.689280
0.987468
1.532215
7.283911
0.007970
-1.460636
-2.425365
-0.034657
1.681120
0.435304
-1.693890
0.196086
1.947099
9.357769
-0.102039
-2.461189
-2.839179
0.237776
2.180147
0.238610
-1.446883
-0.629803
2.276392
10.354153
0.093670
-1.960221
-1.779421
0.308114
1.359319
0.362362
-1.038530
-0.315749
1.756784
9.516261
-0.179707
-2.494449
-1.534648
-0.037765
1.324451
0.526123
-0.211585
-0.688290
1.704417
8.693817
0.549443
-2.710430
-0.507673
-0.010539
1.711702
0.188913
-0.598491
-0.956194
1.525853
6.608602
0.536036
-2.495745
0.243143
-0.347624
1.176874
0.488015
-0.824792
-0.571590
0.814924
4.882013
0.102432
-1.032628
0.323185
0.733660
1.109479
0.129866
-0.146979
-0.208187
0.500699
2.004021
0.853510
0.201358
-0.185221
0.388346
0.298263
0.693528
-0.017604
0.498210
0.276220
1.094132
0.005212
1.385294
0.196842
0.292387
0.962973
0.936793
0.666986
0.175171
0.672878
1.232587
0.126339
0.416065
0.159346
0.541876
0.980025
1.005000
0.607045
0.337322
1.035529
0.510024
0.978395
0.228415
0.754090
0.128425
0.241167
0.535162
0.539440
0.209070
0.979583
0.121990
0.217861
0.914878
0.461806
0.987518
0.970122
0.938261
0.000122
0.272530
0.510483
0.843806
0.565172
0.148564
0.920866
0.241127
0.255165
0.129856
0.731407
0.821772
0.650441
0.011048
0.451064
0.879482
0.907254
0.710746
0.662648
0.150792
0.861324
0.085330
0.205420
0.391858
0.922605
0.370342
0.477065
0.597613
0.042177
0.404370
0.385876
0.270150
0.532762
0.293008
0.984771
0.641896
57.915010
133.909300
12.930171
11.407825
83.502542
106.454963
42.750889
83.835654
-79.147553
28.568032
